78 100
agreement 0.0295744282818 -0.0969062347499 -0.0650272389698 -0.077484973322 0.223088897711 -0.108086774678 0.172282937607 0.323179115412 -0.038812442944 -0.363276198214 0.00235150159294 0.0384510394418 0.0435140194957 0.0591136574121 0.226211233058 0.348757113395 0.049575356021 0.261529939996 -0.240297187811 0.0521391003187 0.193018893317 0.108443420529 0.0312760600044 -0.174925309462 0.00486069637146 -0.12739288111 -0.0673960830425 0.170197430554 -0.0917132154941 0.0956974390982 -0.299389890235 -0.175382284226 0.0527359281643 -0.0646476825304 0.120485325617 0.0691629658946 0.0958163573195 0.053786192645 0.0247428259261 -0.0223612579861 -0.0378633535484 -0.0445813948492 0.0830521123727 -0.0638916517317 -0.116001765459 -0.124523677703 -0.145236591858 0.340408517924 0.196616392922 -0.0386460466541 -0.169208039364 0.161408604074 0.0274191845249 -0.0627601427399 0.0118925118888 -0.0263790404222 0.07513431185 0.326020708314 0.119726032735 0.12560732932 -0.212822498515 -0.0688752671755 0.133738371313 0.0119555956908 0.0821790410235 0.352494397119 -0.0414157567283 0.0582650121039 -0.175396689163 -0.00289572640102 0.0177705091924 0.0737616564313 0.0183940174607 -0.0559226316729 -0.149656015316 -0.00425053856052 -0.110477427441 0.16943899377 -0.202995885154 -0.0464454019623 0.240642287842 -0.373268872531 0.151383525153 -0.0281363970196 0.303674286733 0.150168345262 0.132268413753 -0.0745384461303 -0.180990202285 0.108534718724 -0.215941936258 0.153718793124 -0.0397490114577 -0.209864547252 -0.0428838167761 -0.209779966908 -0.0982143860054 0.0847034203067 -0.130317674258 -0.0294230515243
countries 0.0320368522929 -0.103313111129 -0.0748011278885 -0.0766847347011 0.236534802674 -0.111088347575 0.176770382849 0.343685219582 -0.0395053283244 -0.389427456421 0.0044522054684 0.0391021567246 0.0519694332242 0.0635547857116 0.239418657571 0.359772235325 0.0443072362759 0.27767078926 -0.260081069243 0.0534298026478 0.207432355673 0.106228156399 0.0258994539424 -0.186157540786 0.00487441513364 -0.139088328939 -0.0725330774182 0.175677338547 -0.101498341581 0.0985985878487 -0.32057764715 -0.193100424407 0.0551876425825 -0.0753505637218 0.127799548041 0.0695145436864 0.0926069936413 0.0583917972178 0.0259375801763 -0.0176152317143 -0.0425699367097 -0.0478814474938 0.0915468754361 -0.0750825793262 -0.1234887175 -0.124057612866 -0.151540451167 0.367437364513 0.212408782084 -0.0408990192793 -0.185491073963 0.17329589395 0.0302250166207 -0.0670111132886 0.0124925131975 -0.0334080913959 0.0834222935897 0.349552456184 0.115782749559 0.128991051003 -0.231951577036 -0.0838103306463 0.143704938128 0.0125811207121 0.0817022303679 0.366062604055 -0.0434411549242 0.0626211192754 -0.184131083692 -0.00189108405721 0.0203011547907 0.0702775669847 0.0259788577747 -0.0586713391545 -0.16479845022 -0.00350423602276 -0.114578674674 0.182365702276 -0.209042979022 -0.0488428890247 0.259523937743 -0.381482773253 0.154123649772 -0.0296008241499 0.320361616306 0.156566580035 0.131146738 -0.0856970371489 -0.192831692719 0.109168802415 -0.226878501498 0.161647878082 -0.0404738836181 -0.224389337238 -0.0451814360963 -0.214615994388 -0.112182503617 0.0893703154804 -0.133212286606 -0.0266273751257
eu 0.0269907206389 -0.0949045062964 -0.0671840159931 -0.0746365565007 0.228712018261 -0.109010032658 0.174632606045 0.33502590849 -0.0378844353232 -0.377366467413 0.00691831816219 0.035936213796 0.0503841714939 0.0537465923598 0.225871707169 0.354041705715 0.0427166592111 0.26795123322 -0.24521659548 0.0486930595398 0.198113068384 0.111452307395 0.0255793714379 -0.184132556397 0.000808235719357 -0.132653787176 -0.0672411064204 0.172686781389 -0.090564540279 0.103237509883 -0.312639462031 -0.18427585475 0.0595524672115 -0.0640159380435 0.123542065193 0.0663537851601 0.0907764475061 0.0576510380705 0.0288661350587 -0.0229455297427 -0.0395309932329 -0.0478747884198 0.0888493341888 -0.0676534583776 -0.114018940801 -0.129173774497 -0.147125550254 0.357228758228 0.202363155054 -0.0477075531936 -0.179543353892 0.166489382801 0.0319772698063 -0.0623997405794 0.0157110593143 -0.0268371465648 0.0831499315456 0.334268504113 0.120880217992 0.126803276075 -0.219484317218 -0.0759901608811 0.135043754469 0.0135171649647 0.0831612269762 0.364740853477 -0.0390326020769 0.0530127661418 -0.187924322822 -0.00248985340286 0.0207689871378 0.072030497846 0.0259217509401 -0.0507461290345 -0.154025365583 -0.005388712689 -0.106758550398 0.173724241773 -0.205703049416 -0.047224851894 0.255076943407 -0.381575150781 0.149469784404 -0.0266746057575 0.313107211566 0.154053596546 0.12954009325 -0.0821326837124 -0.18362594184 0.112286212047 -0.218624335983 0.157337416337 -0.0403054738759 -0.218035378431 -0.0341469541873 -0.215892721885 -0.103114687732 0.0900290522392 -0.132246590738 -0.028857016989
number 0.0260909633808 -0.104437837364 -0.0747001863619 -0.0767745612191 0.241612904349 -0.116952287428 0.183953429926 0.342782980234 -0.0429203869878 -0.383452928445 0.00267199717845 0.0404950846793 0.0472244095551 0.0638357441779 0.234833856567 0.358335548589 0.0487765435295 0.271081600418 -0.252922339203 0.0521223872547 0.210058116285 0.113450581047 0.0311051221345 -0.183500392553 0.00309383633422 -0.134085219599 -0.0620132187264 0.177200256848 -0.0988787352065 0.108728244106 -0.319623776417 -0.19481796909 0.0549126158595 -0.0716938498136 0.128534347538 0.0752470067573 0.0973132397867 0.0590548076917 0.0328607679434 -0.021369379838 -0.0455181799195 -0.0523079361856 0.0899187612667 -0.0728808128502 -0.117724872693 -0.12571904795 -0.152150016779 0.363394947262 0.208908853412 -0.0442947210411 -0.175845742877 0.174797296942 0.0355952170582 -0.0686058379039 0.0187978191837 -0.0311464355051 0.0848506540511 0.339379489732 0.124545539321 0.12898981028 -0.228672097933 -0.076922923184 0.132687364998 0.012342846798 0.0845135555189 0.368599678787 -0.0452214683896 0.0533080896928 -0.183557135564 -0.00326390546256 0.0207479097571 0.0791422123733 0.0281051689934 -0.0598198347284 -0.163807583788 -0.00287152043792 -0.106276399778 0.17431544978 -0.2038032345 -0.0447815617053 0.252446235024 -0.387510367186 0.151730686939 -0.0287787114157 0.3212444271 0.154430478806 0.141037134794 -0.0829991601491 -0.194894801808 0.115745433461 -0.217932482077 0.15726784834 -0.0353783792648 -0.214497808075 -0.0419814366704 -0.220192960232 -0.109531002692 0.0926262314925 -0.1413966576 -0.0263799766126
over 0.0217239225871 -0.0969227221881 -0.0744484040306 -0.0788646074382 0.234093054458 -0.115675777136 0.172969413408 0.337088779075 -0.0347855655088 -0.377341898311 0.00587201986587 0.0392809160171 0.0503586056952 0.0648345494845 0.232917807571 0.358585848119 0.0505150244336 0.270031216967 -0.247014468265 0.0503895927388 0.201267602719 0.107149357607 0.029170778542 -0.186939205315 -0.0014487771389 -0.137658209458 -0.0642198080894 0.16836277674 -0.0977255784656 0.0984046979012 -0.309015275715 -0.182124990269 0.0559224771736 -0.0669099189848 0.123010239271 0.0685466746229 0.0955209465815 0.0626631354473 0.0305357466206 -0.0229330934282 -0.0443943546383 -0.0536722138201 0.0839565402935 -0.0661329084912 -0.120258612146 -0.126587584458 -0.157440369256 0.353310825056 0.209515214348 -0.0423994884318 -0.179752647021 0.171486216099 0.0342589720631 -0.0633472422481 0.012303656006 -0.0281397938264 0.0773000644473 0.341563455589 0.11943187098 0.128932709255 -0.223871765458 -0.0741969503967 0.132924934507 0.0169029763998 0.0787453192443 0.365149215617 -0.0386687393885 0.0622877897179 -0.184808759345 -0.00319202035603 0.0228332791557 0.0732142994116 0.025742239749 -0.0539163429231 -0.163023444395 -0.00064353353712 -0.105805035919 0.174320162518 -0.203945427146 -0.0523663549738 0.253035975088 -0.382063982866 0.147887824861 -0.0216819326214 0.314187211588 0.159129233511 0.131726566263 -0.0762562030055 -0.190173046577 0.10740415347 -0.223408164678 0.154216940195 -0.0404527168715 -0.215119288949 -0.0355297467735 -0.218072368476 -0.106706148873 0.0844895700003 -0.138629074061 -0.0260992078262
religious 0.0318210525641 -0.0979954095846 -0.0723917892295 -0.0753208602769 0.234805294022 -0.116522953434 0.175879260821 0.339856473351 -0.0389148963928 -0.380293419341 0.00445387531014 0.0331466389331 0.041305150589 0.058818763305 0.23241590106 0.353359453834 0.0510367808859 0.267051947788 -0.253295217098 0.0539041723256 0.203057329843 0.103135138012 0.0268472726066 -0.180278145096 0.00437284285192 -0.13417004511 -0.0706999962112 0.169214604932 -0.0945302605928 0.105550665151 -0.307955922213 -0.188091319893 0.0586388712879 -0.0703603867109 0.121443964645 0.0723290410529 0.0929628329998 0.0562355899264 0.0307937114948 -0.0156186495937 -0.0429295086871 -0.0467664997503 0.0895217030418 -0.0772832335897 -0.121604846589 -0.126102301212 -0.15622301855 0.352673130412 0.208198434086 -0.0430136131001 -0.181952024409 0.169491877472 0.0277113264911 -0.0658268592776 0.018755464394 -0.0278904523091 0.0763884743812 0.334801460084 0.113749823033 0.125523704001 -0.222228010029 -0.0742524503859 0.136617882772 0.00997282975246 0.0825150582 0.364709187031 -0.0451346013117 0.0567741445314 -0.182588508324 -0.00605080912102 0.0259752943534 0.0704006302829 0.0213169216105 -0.0521621950373 -0.156244824248 0.000327768227424 -0.114126540748 0.180902870014 -0.207736523837 -0.0455892394013 0.248281049436 -0.378486643689 0.157892163387 -0.0215592521427 0.315456558634 0.151658839149 0.13849606216 -0.0759569929357 -0.182945929953 0.106378771259 -0.218813195371 0.154106748641 -0.0347297942358 -0.207951895085 -0.0407665792621 -0.218752638537 -0.110540563884 0.0918007407422 -0.131364671073 -0.0258829302681
since 0.0311462205075 -0.102955801814 -0.0753760592338 -0.0822851259577 0.241211687134 -0.120598123614 0.186658578509 0.341434305224 -0.0367552913483 -0.383351124532 0.00111707658447 0.0386711459706 0.0407171397214 0.0640000321752 0.234840339015 0.365029109236 0.0462793610667 0.278073667901 -0.255588965231 0.0543555685252 0.204628238515 0.11264065189 0.0293178594066 -0.188498617959 0.00693651797076 -0.13829764074 -0.0654151306375 0.176501995038 -0.0974940052223 0.101015735865 -0.31729333638 -0.187366233504 0.0545624887649 -0.0750743970872 0.123815194538 0.07003737226 0.0966021434197 0.0626520957599 0.0247511415011 -0.0180925231261 -0.0419118972424 -0.0534143932962 0.0835783096574 -0.0709343537275 -0.125114717368 -0.130400745947 -0.151406603186 0.361203643539 0.208578689618 -0.0411960546847 -0.185951510541 0.175424390241 0.031724920278 -0.0668381750282 0.0133976510445 -0.0312941367087 0.0836331363036 0.342058471816 0.121525695626 0.135895709291 -0.229515673183 -0.0776221516437 0.137263442495 0.0204922676028 0.0824646215088 0.372163330887 -0.0386162538477 0.0621578130275 -0.189897115129 -0.00335376859274 0.0214978495334 0.0718902985521 0.0175476484629 -0.0602254714299 -0.156448925776 -0.00541279507768 -0.116899822802 0.179421318197 -0.212003940517 -0.0532574515578 0.261706014066 -0.389126459613 0.154642970272 -0.0298961790166 0.322179584938 0.161507823903 0.136811756748 -0.0778348248917 -0.187961828231 0.113567519237 -0.219575391636 0.162638331648 -0.0394677638719 -0.214685264296 -0.0430783128889 -0.218000852914 -0.108177862976 0.0865527452256 -0.138470907136 -0.027038918492
some 0.0285051524444 -0.100052374947 -0.0665419848714 -0.0724127895088 0.233737508428 -0.115718865953 0.180839516681 0.334260550708 -0.0407299245221 -0.379135969763 0.00385255198756 0.0353080250526 0.0481143263779 0.0581543877188 0.236650896577 0.354395114252 0.0508529927886 0.266931019157 -0.256150470303 0.0477034435205 0.203591469098 0.110430594621 0.0345676101141 -0.182420058411 0.00525518056937 -0.126716050964 -0.0680062601078 0.173463675321 -0.0939076627082 0.102810262574 -0.313664397334 -0.182111582169 0.055413031946 -0.0724281555249 0.124623192369 0.0645181660418 0.0933609520453 0.0608162207585 0.0294688458082 -0.0187893261059 -0.0373287231227 -0.0536204217081 0.087902055529 -0.0670252412703 -0.120550426872 -0.130462289147 -0.150047339555 0.357260838191 0.208603558066 -0.0433651414218 -0.172915962671 0.17523206455 0.0316710012554 -0.0599709296069 0.0172267323369 -0.0288431678224 0.0781914284774 0.336739922153 0.122508108572 0.131620371245 -0.229220057755 -0.0758936456336 0.131820049469 0.0133146187518 0.0864101626951 0.368956773048 -0.0358231080511 0.0645845392855 -0.189533252228 -0.00769849847745 0.0248635781823 0.076787819293 0.0213262730567 -0.056864787233 -0.156845188777 -0.00791068114975 -0.104447524107 0.172940455033 -0.206534328678 -0.0448163049397 0.250409153274 -0.382958049005 0.153194408053 -0.0252184332823 0.314956120715 0.159275843936 0.132199769373 -0.0793110633078 -0.189166505361 0.109159403794 -0.219010202359 0.153980904326 -0.0324388876635 -0.210703899302 -0.0397810824151 -0.217629022328 -0.10433513824 0.0885552311051 -0.141329300748 -0.0318876594839
there 0.0268939008187 -0.103966499743 -0.0757697756369 -0.0734948178446 0.234417561786 -0.118522304248 0.187257199081 0.339167425004 -0.0370220998889 -0.385720170059 0.00412306210672 0.0385638509393 0.0518745892366 0.0559907770272 0.236930670175 0.361463923256 0.047575924755 0.275228747942 -0.258668945176 0.0487992346413 0.207356771083 0.111771263914 0.0269639776653 -0.189193917814 0.00097980519776 -0.140764147483 -0.0612135476228 0.168964120498 -0.0915063957873 0.112110750843 -0.313262662549 -0.193275904887 0.0592533108284 -0.0715246867813 0.122308782856 0.0755691063419 0.0983564274789 0.0550507100892 0.0244968246322 -0.0209228672985 -0.0461725238508 -0.0507130452324 0.0881648534996 -0.0697844053872 -0.127948800597 -0.131672810533 -0.158856662141 0.360814065086 0.210600857386 -0.0381962667254 -0.177891093456 0.174199837415 0.027382899826 -0.0658382958694 0.0190406951431 -0.0297758073601 0.0777649194345 0.346540696518 0.119035755011 0.130318097052 -0.232347980456 -0.0812901431243 0.134441254184 0.0100280220171 0.0824141992151 0.375663541698 -0.0420348569314 0.0537290875859 -0.185343544042 -0.00225134449281 0.025540292024 0.0779785981042 0.027958635692 -0.0595164540587 -0.162849287804 -0.00401486453967 -0.113718238713 0.175165449106 -0.204231195587 -0.0467128216663 0.259233328047 -0.387712405582 0.157511937948 -0.0266152354263 0.315248523413 0.16267659271 0.135742678952 -0.0853432257381 -0.194460604443 0.108943341596 -0.220019031655 0.154409445109 -0.0385073085459 -0.216089995739 -0.0361567279575 -0.219897423317 -0.108070127974 0.0836631239076 -0.143337387284 -0.0294345752
top 0.0267599564666 -0.103008998564 -0.074878864354 -0.0809244118152 0.235546899503 -0.105155137588 0.176523653633 0.333965223299 -0.0454365419343 -0.381891321181 -0.00113078555772 0.0368966132887 0.0513577234926 0.0557318041362 0.228013376475 0.363195878232 0.0532420691702 0.268197491662 -0.244165613745 0.0583461860104 0.198641169774 0.115634184923 0.0309207930482 -0.183092929866 -0.00386651967472 -0.139018609558 -0.061441399921 0.165044419009 -0.0905173512579 0.110933467482 -0.318972548657 -0.18492944264 0.0492154613541 -0.0743800638504 0.128011803542 0.075867037411 0.0984268110451 0.0508479254289 0.0214230263594 -0.017730042353 -0.0438020977459 -0.044140525479 0.0927944252232 -0.068133918778 -0.120452702466 -0.121574559792 -0.157536082042 0.359989258997 0.206388387708 -0.0409140869403 -0.173029176771 0.161594785602 0.0339395582962 -0.0571791100965 0.0159012981067 -0.0277095674468 0.0798156787952 0.349546478425 0.122272568062 0.1271416182 -0.226423653393 -0.071797082357 0.135962341477 0.0121351781022 0.0806735283454 0.371652555782 -0.0416838140549 0.0473054214085 -0.191613807266 0.00163153132239 0.0164554241948 0.0752295234821 0.0192436785049 -0.0517363296249 -0.167853189517 -0.012073824659 -0.102272194334 0.175523730225 -0.208332556428 -0.0421978635438 0.256765868843 -0.378020350014 0.163130192449 -0.0268031160825 0.320256948053 0.156387737315 0.138919643643 -0.0758602217274 -0.196009587347 0.11886392442 -0.219614596911 0.151837912263 -0.0390600935627 -0.224562986357 -0.0364903120146 -0.219232091246 -0.111655895047 0.0801612831614 -0.129382947996 -0.03000708065
well 0.0313103739096 -0.0998294751838 -0.0730600419333 -0.0803262831543 0.232559654356 -0.114313652983 0.174535771671 0.333534955456 -0.0352374761643 -0.377473354509 0.000529363514356 0.0407350710715 0.0481883061513 0.058403083084 0.237721376148 0.35387003447 0.0482006401087 0.27167561582 -0.24760221976 0.0515983940247 0.20693385316 0.105306201094 0.0336877869727 -0.179116215741 0.00654174203102 -0.137493399764 -0.0623124250258 0.168987372683 -0.0995172923226 0.0988398057 -0.308806526745 -0.188790359583 0.0605054620771 -0.0747166023543 0.126191659324 0.0657826425918 0.0922141304553 0.0562755779435 0.0302317789016 -0.0175534978016 -0.0399457767409 -0.049907492704 0.0895214580074 -0.073869728332 -0.12020725245 -0.130842170876 -0.148772221501 0.358773751383 0.202042349877 -0.0445699558323 -0.177200170713 0.170649689676 0.0322963749548 -0.0613484112325 0.00923646778293 -0.0332271214881 0.0825086945885 0.346010732575 0.121147858841 0.126779903804 -0.224396538198 -0.0734675136652 0.139416579729 0.0118057387519 0.0818803380681 0.36444641893 -0.0363431674422 0.0554551630355 -0.185695728071 -0.00590601566219 0.0269412465327 0.072182611563 0.0187124800316 -0.0566409192535 -0.16434951372 -0.00120698937452 -0.112827785456 0.177869451717 -0.201644605012 -0.0484440128797 0.257026489457 -0.37966448522 0.152621379837 -0.0218691413156 0.318899392835 0.160384947971 0.133690228354 -0.0808705304657 -0.194589102763 0.114332665466 -0.221642081562 0.154997676652 -0.0397110998089 -0.220627300566 -0.0439095480433 -0.213830225034 -0.105218814318 0.0882610913108 -0.133617317966 -0.0285098267506
all 0.0205145890194 -0.10001604753 -0.0730251294974 -0.0707423291052 0.235960853306 -0.104870131125 0.178009850404 0.332283606241 -0.0388471519676 -0.370080597334 0.0058562168982 0.0349536978957 0.0421426829273 0.0632643376017 0.23063871005 0.352344409449 0.0499533889989 0.267336462545 -0.252387665312 0.0467120636339 0.198375241803 0.106955983517 0.0299801137899 -0.185324302268 0.00225550678503 -0.129008009879 -0.0682824355937 0.166499888123 -0.0936400822376 0.104231071008 -0.303233933982 -0.185624176551 0.0599305811766 -0.0645073198523 0.116765382627 0.0644823907762 0.091037695618 0.0506926611382 0.0268698912424 -0.0201768293169 -0.0391032737618 -0.0460989333518 0.0841565107169 -0.0731274758435 -0.120041344352 -0.129656402605 -0.157097492266 0.351833660662 0.198751593279 -0.0431250539565 -0.178260792727 0.166568663828 0.0326492479424 -0.0591234915808 0.013317341537 -0.0282797932482 0.0788646408689 0.334657393352 0.122073418735 0.126808582409 -0.22610623892 -0.0728853182304 0.127702001002 0.0118881954846 0.0848479738019 0.358014078766 -0.0426139736331 0.0604886230925 -0.180333487428 -0.00641374340955 0.0226791276576 0.0771136192051 0.0250485490505 -0.0534022736659 -0.158777437761 -0.00893665183497 -0.112966007532 0.171932199766 -0.201357947828 -0.0462041044356 0.246161640206 -0.374334212987 0.149976723701 -0.0255735959092 0.314023860747 0.150327216549 0.13927917786 -0.085089116146 -0.188992245733 0.10734333832 -0.220066165984 0.153010875113 -0.0398844729285 -0.218919580752 -0.0372080766988 -0.216328292067 -0.102539088805 0.0894436632619 -0.13053366493 -0.0240750442639
also 0.0262460291402 -0.097341672515 -0.0660378812599 -0.0773623695557 0.234444681024 -0.110855538493 0.174236503164 0.329051597004 -0.0352190037716 -0.374512231345 0.00552824782936 0.0335085426302 0.0425483639552 0.0540036617532 0.2330949418 0.349126678699 0.0476800201 0.268453639514 -0.24993222514 0.0460803630421 0.198443438357 0.111936616981 0.0290203098226 -0.178281468092 0.00160069120933 -0.127412867387 -0.0627974089172 0.169807559402 -0.0959501060812 0.0979275803982 -0.310415492851 -0.186470654131 0.0579712776635 -0.0705347531874 0.124280403207 0.0649666707542 0.0979397700063 0.05520237915 0.030270844465 -0.0220245406873 -0.0458623936209 -0.0500383155741 0.0873573309085 -0.0652446677158 -0.113826162441 -0.12142121127 -0.150940223034 0.354606329364 0.201022883718 -0.0455583659363 -0.179700473849 0.164900637993 0.0316827441607 -0.0655003363151 0.0176055981772 -0.0316642954694 0.0834955218445 0.340034795726 0.122416934183 0.127652972082 -0.220728705352 -0.0780440206165 0.13292975998 0.017038815164 0.0848292170525 0.362431995788 -0.0421847204485 0.0542731556631 -0.184122009248 -0.0089928571721 0.0172827671992 0.0746839515056 0.0179885912797 -0.0549165993152 -0.156892539996 -0.00741341369111 -0.104446015894 0.172367246071 -0.207506313142 -0.0505853167721 0.247420264552 -0.379855951395 0.152179166356 -0.029266350179 0.313088215806 0.159812210735 0.12954811914 -0.0761672815523 -0.184097933573 0.112764891218 -0.215723779053 0.15054876179 -0.0388945967573 -0.211493880508 -0.0362320952371 -0.214835427212 -0.105860392946 0.0885257387342 -0.128663530016 -0.0283089579461
many 0.0289598689498 -0.106865291475 -0.0775501531127 -0.0812507968106 0.246323611264 -0.114645589883 0.181989705651 0.345372261607 -0.036925789745 -0.388536197991 0.00159445231941 0.0395191979348 0.0482727691313 0.0648715454744 0.237447566034 0.370315859455 0.0510083016739 0.275173919697 -0.256548641462 0.0493586402172 0.212020798847 0.110064070835 0.035566715245 -0.189272152708 -0.00130033606122 -0.143643771018 -0.0657240223867 0.172696217287 -0.0940313778229 0.111717245708 -0.326013600087 -0.194193061852 0.0541189393244 -0.0701399216373 0.124622310879 0.0715985848459 0.0990415632885 0.0571030287623 0.0230125321136 -0.0154339131801 -0.0424439882442 -0.0479983480856 0.0862453995196 -0.074490617863 -0.124913055405 -0.128926367084 -0.15783715759 0.364157381921 0.2067561914 -0.0448090945768 -0.18017605309 0.170971619946 0.0304208298277 -0.063787377546 0.0165213937703 -0.029314385671 0.080858099443 0.356159592235 0.118712048285 0.133965144298 -0.238345199129 -0.0841493311301 0.140515819802 0.0138309401856 0.0814439130791 0.377965642408 -0.0432275384625 0.0533459403014 -0.19433411792 -0.000797568465243 0.0271170374219 0.0735151851966 0.0188622924627 -0.0549198181402 -0.168364701939 -0.000753804743642 -0.113566460892 0.177322308888 -0.215156179912 -0.0454224010117 0.259014827482 -0.391377266407 0.158269461067 -0.024071026364 0.321959194685 0.162735681036 0.143263215243 -0.0805611656788 -0.199574533037 0.117393907196 -0.229777460598 0.163515673257 -0.0445887285389 -0.22792782337 -0.0343056918248 -0.225459420341 -0.111092045866 0.0834009044947 -0.133137858481 -0.025669250051
oecd 0.033097979946 -0.0977088913587 -0.0684715725927 -0.0791050706112 0.233085318948 -0.109990142314 0.175462195695 0.331880435798 -0.0391697232359 -0.382438010296 0.0011747757608 0.0400339975782 0.0500694477438 0.0540486083269 0.239649503755 0.360709797236 0.0537941120334 0.272898008779 -0.253777790396 0.0551313658103 0.207192978721 0.112799298247 0.034359594568 -0.187742045548 -0.00143148680323 -0.132163075535 -0.0714142943481 0.172652317487 -0.0983355844061 0.104568590482 -0.316348480294 -0.194706224437 0.0541163105072 -0.0687404671468 0.127651500969 0.0653233207129 0.0951867259306 0.0622025049531 0.031369931059 -0.024891297273 -0.041122303154 -0.0445401911314 0.0893661250336 -0.0687539185871 -0.1218151914 -0.130879241839 -0.150971071872 0.360158379829 0.206520975872 -0.046354213755 -0.171454448849 0.166042758285 0.0289294124141 -0.0591580211352 0.016167210876 -0.0272727506883 0.0776997144959 0.33824750794 0.116849566886 0.124138764062 -0.231284282523 -0.0734013711974 0.142852718398 0.0178392218528 0.0776848223396 0.361530166895 -0.0378187123999 0.0493586737867 -0.184285487282 -0.00925245974243 0.0223290882452 0.0735004212185 0.0247922979326 -0.0561010329446 -0.162456268523 -0.00137312435114 -0.114307861962 0.171625316904 -0.206103157155 -0.0467185676421 0.257259652908 -0.376468458998 0.153320402881 -0.0273774070277 0.311694965873 0.153277013357 0.131566366521 -0.0847885642628 -0.197390344635 0.116672136395 -0.221628198814 0.153767361512 -0.0349798385367 -0.21212435697 -0.035246046237 -0.212443539488 -0.103862502419 0.0919211592235 -0.12768593881 -0.0228771732665
people 0.0257437868132 -0.0897660667186 -0.0685720842221 -0.0747416771669 0.222026060352 -0.105149150061 0.166531517609 0.315118466401 -0.0323779322785 -0.354032642232 -5.71530571774e-05 0.0358609310628 0.0383105083642 0.0586160909427 0.223624434427 0.342283206932 0.043209457686 0.254269572957 -0.24245618986 0.0485503420567 0.197610255287 0.106915737316 0.0218748647351 -0.175425093875 0.000857084596598 -0.124763364093 -0.0664720237396 0.161597511794 -0.0925619921813 0.101465257922 -0.300545251919 -0.172980029945 0.0527789613094 -0.0653860204914 0.121423290952 0.0671684282684 0.0885402145007 0.0620293288484 0.0286216837434 -0.0185357113386 -0.0350081155497 -0.0464306300404 0.0819545725281 -0.0629000416167 -0.116038365333 -0.120711431567 -0.14648649038 0.337115162528 0.193176715886 -0.0433355668798 -0.168539026461 0.163603225554 0.031335660723 -0.0587135483105 0.0141367492325 -0.0232923574866 0.0758813639781 0.323173754415 0.11227618969 0.123458785392 -0.215966701515 -0.0719579961571 0.128399156858 0.0161303878703 0.0847825487611 0.351373655462 -0.0412457858377 0.060678079571 -0.174668362933 -0.00225683449104 0.022034944203 0.0751953178193 0.026166100562 -0.0471124328511 -0.14936681726 -0.00445878435838 -0.0985452072942 0.162401420721 -0.200836104721 -0.0470282402751 0.238124071296 -0.364759075921 0.139495666015 -0.0228813001888 0.295541950112 0.144778887146 0.13326901336 -0.0782539361259 -0.178555729479 0.107932922225 -0.20760312437 0.145543449008 -0.0329048137569 -0.204476059866 -0.0379385729778 -0.203593350398 -0.0956108120955 0.0869711859686 -0.133816958599 -0.0297765231951
religion 0.0286456127895 -0.0983401276952 -0.076539470948 -0.0740189869273 0.241374216025 -0.111465566867 0.184836886977 0.336231092531 -0.0419661839208 -0.383419935355 0.000333607217648 0.033139986669 0.0522468293706 0.0552989848126 0.239244987786 0.351281438032 0.0524662421767 0.276871148829 -0.254307344122 0.0505467203117 0.205877486537 0.106535879287 0.0321353876647 -0.188736416889 0.00352921942102 -0.13206527464 -0.0625307244293 0.169785368688 -0.095716166893 0.103282810816 -0.310741710201 -0.191906266983 0.0620444462545 -0.0724229664268 0.121979125312 0.0723256497625 0.0930210480483 0.063623522307 0.0240472743921 -0.0198492090039 -0.0417215945526 -0.0503782240094 0.0835900029418 -0.0772749307057 -0.12109188025 -0.134771320944 -0.160560633561 0.362442673681 0.206050036539 -0.0385603288972 -0.179907229835 0.177759021223 0.0363831345285 -0.0634777345225 0.0129488687781 -0.031260254939 0.0790899190145 0.344610236364 0.121333086633 0.132059299601 -0.229841303803 -0.0758225821082 0.136442579239 0.0126974956237 0.0789631480825 0.365046491282 -0.0429070094267 0.0607753346226 -0.187473624432 -0.00814887945429 0.0235832059952 0.07718851048 0.0269114334918 -0.0536890520929 -0.157444758449 -0.00595289637696 -0.114116903137 0.180948435841 -0.204237225336 -0.0485233137798 0.253666221934 -0.382478216671 0.157882826426 -0.0227110694778 0.31801601056 0.160136758899 0.141592785794 -0.079677399257 -0.192992144876 0.107594261619 -0.22079185958 0.16099315519 -0.0377605634824 -0.212087501427 -0.0431256902919 -0.219422220333 -0.111857560255 0.0864449226807 -0.144426926383 -0.0304188564402
school 0.027695927616 -0.0998305771382 -0.0691142839885 -0.075686642861 0.237045875481 -0.114357144103 0.175158666674 0.333994638994 -0.0430343037232 -0.383005614422 0.00740297084716 0.0339496553287 0.0428140032933 0.0625998135975 0.233565663333 0.351317475176 0.0518927506953 0.275696742121 -0.249678124847 0.0497811173677 0.205545355494 0.109616396466 0.0352786505001 -0.184769563312 0.0067333062302 -0.136137451113 -0.0680705991495 0.168764671053 -0.0991826992175 0.101649515363 -0.309210415633 -0.190995269189 0.0557646269285 -0.0747516685785 0.121124422939 0.0735284344296 0.094530431512 0.0604552767187 0.0298155463599 -0.0191655013433 -0.0384555428568 -0.0434163137489 0.0840817134417 -0.0715286073052 -0.121738359926 -0.128380781953 -0.14912180939 0.361308619604 0.202708750875 -0.0417171036735 -0.17370171248 0.171612513339 0.0370562842214 -0.0573267063834 0.0122419739239 -0.0282482945932 0.077471876221 0.344287318062 0.120739905878 0.134340401141 -0.223678023794 -0.0781036502977 0.139500636395 0.0150891039907 0.0827517889459 0.369346457775 -0.0391919967073 0.0598024950584 -0.190477122352 -0.00634867174155 0.0172572227922 0.0754941778756 0.0256329453408 -0.0543299519656 -0.156482892283 -0.00893842601334 -0.110837936343 0.176603256354 -0.202564792052 -0.0431357639268 0.250232986998 -0.383829564034 0.15872404426 -0.0266463448599 0.314842921402 0.152118228804 0.135134280841 -0.082714816682 -0.193561478055 0.115773701155 -0.223613025216 0.157152424182 -0.0386701382682 -0.220992976516 -0.0411206853881 -0.218307632156 -0.102943823977 0.0870356025156 -0.129958312437 -0.0240890305397
students 0.0275879246831 -0.0994714592587 -0.0715026224093 -0.0800159074885 0.232867667376 -0.106186364562 0.18290878336 0.336311691433 -0.0362618948878 -0.373514632689 0.00685767016807 0.0322200019209 0.0517427077024 0.0567418689838 0.227992998793 0.350621131518 0.0492843240492 0.27013661582 -0.247694937209 0.0491390986046 0.202586591198 0.111864440978 0.0338702461874 -0.182539056095 0.00380021564535 -0.137316486482 -0.0662080337729 0.168331902816 -0.0938695261035 0.101489723197 -0.313732984497 -0.184205598879 0.0565679221734 -0.0690870591906 0.121837546529 0.0721085069378 0.0932981173091 0.0504328256457 0.0294303329801 -0.0191790991091 -0.0413117931429 -0.0514443252736 0.0886809765649 -0.0677188711508 -0.124653033222 -0.124005921954 -0.153812345345 0.358256906837 0.198532910517 -0.04789698395 -0.177062691391 0.166647660327 0.0299863666107 -0.0664168560519 0.0161572097123 -0.0324205006057 0.0753710865236 0.343079033412 0.118892327896 0.125649389176 -0.229804141585 -0.0731642700305 0.131154101976 0.0106750772663 0.0775091577583 0.366978460634 -0.0352678541247 0.0515476681574 -0.184582743512 -0.00160708850879 0.0261557215532 0.0745257795357 0.0184217940933 -0.0569942468814 -0.157079746942 -0.00241681748048 -0.108599577455 0.17381053901 -0.201671057672 -0.0480167708619 0.25741877405 -0.383193173322 0.156274993511 -0.0191525319089 0.309906953299 0.15944205927 0.136203668513 -0.0854727614907 -0.188994180545 0.118161340687 -0.22245640688 0.152660954091 -0.0362943300539 -0.212376992711 -0.0362750750967 -0.209400412367 -0.104556268882 0.0818663959237 -0.137923243704 -0.0215271184606
two 0.0205654988735 -0.0932076279092 -0.0641090153425 -0.0688934605138 0.229537089404 -0.108727011049 0.16921085448 0.331710414844 -0.0411383764756 -0.365749631196 0.00496874973541 0.0391471675982 0.0400043243937 0.0602819924424 0.223899185485 0.348304590237 0.0499580493796 0.258441739127 -0.241444793494 0.0526014844109 0.195429641163 0.106935218628 0.0282509590735 -0.177718864741 0.00639965502592 -0.123601073976 -0.0615998283724 0.164532422933 -0.0903830691495 0.0970063101594 -0.306501666868 -0.178184722246 0.0574325288029 -0.0679842821991 0.119463268874 0.0618122431968 0.0914381663978 0.0587952348234 0.0248852635211 -0.0213826220107 -0.0413014340021 -0.0505938984341 0.0794722883101 -0.0718885945169 -0.11002701415 -0.127058445066 -0.154473917081 0.345425821519 0.202342943806 -0.0358516004502 -0.174769244074 0.166168242188 0.0294422001541 -0.0663783283047 0.0172820992198 -0.0320521558412 0.0747383657702 0.331292263889 0.1168306085 0.127904105436 -0.220596591971 -0.0715713313481 0.12999849576 0.0182707493767 0.081925080194 0.350582666133 -0.0406844212952 0.0583884140429 -0.175469486443 -0.00781782858777 0.0213892757874 0.0679587684221 0.0249230921195 -0.0507424088381 -0.154877544805 -0.00404753645189 -0.102956106242 0.166889281296 -0.201613025612 -0.0470059493144 0.238387065584 -0.370562047986 0.143388720098 -0.0214146468674 0.305299328407 0.155889374803 0.133706884127 -0.0757416699463 -0.184725139769 0.109140108319 -0.208912920756 0.15222967374 -0.0349044166463 -0.20948156047 -0.0356296513162 -0.206539959925 -0.0992367542072 0.088762981293 -0.137233282461 -0.0268600352595
u 0.022767214305 -0.0936512579403 -0.0693905913076 -0.0781699961476 0.237918509904 -0.114512454603 0.176712296268 0.331225091707 -0.0365816004905 -0.373838103938 0.00281823803139 0.0348494326793 0.0433241937466 0.0556514569769 0.225888751139 0.352331990442 0.0458256893988 0.266382605569 -0.248387221785 0.0554072956136 0.204311373532 0.108364288725 0.0287703639727 -0.180324488133 0.00382195340086 -0.128581560902 -0.0672579706865 0.166824282895 -0.0940391662467 0.0988893092125 -0.305564325172 -0.181088241979 0.0556488556354 -0.0651849967517 0.123181633202 0.0697803126465 0.0905227901953 0.0574264338223 0.0230035576059 -0.027666193272 -0.0440516426283 -0.0510705029197 0.0850418815959 -0.0717439201478 -0.118959744372 -0.131568258522 -0.148485106701 0.351895142333 0.208065607336 -0.0437335227412 -0.172682985544 0.169657743082 0.0311287612398 -0.0669640144131 0.0155246034002 -0.0320644017704 0.0836633674216 0.340360671243 0.123337905176 0.125742844862 -0.222446652813 -0.0806028863999 0.137309138343 0.0120192129475 0.0841690663576 0.360526197366 -0.0415838000354 0.060886623019 -0.187276935506 -0.00654517166179 0.0194399944384 0.0765213331024 0.0235060159211 -0.0514107837733 -0.156355815224 -0.0058082760446 -0.109844832484 0.177881748201 -0.201286607208 -0.0519506004431 0.248863785788 -0.382431234563 0.152968434193 -0.0221273656631 0.311666702021 0.159704482684 0.131862826505 -0.07683586701 -0.188583984394 0.109846115965 -0.221471589739 0.152603347886 -0.0412780983131 -0.215879042433 -0.0383905075248 -0.216283718378 -0.104759196183 0.083471374536 -0.138571029068 -0.0323658563549
century 0.0319716263399 -0.10122235817 -0.0657043918387 -0.0732325624455 0.23876855293 -0.119816262592 0.177303870642 0.330856274912 -0.0360421776628 -0.373232945959 0.00334477916878 0.0354051195906 0.0501319554636 0.054186478522 0.235803464727 0.350022690277 0.0522242626041 0.267398553597 -0.254463581449 0.0557758799932 0.206690412562 0.10622228771 0.0280147760249 -0.185325444874 0.0019798651196 -0.133728672384 -0.0697964202721 0.165636028569 -0.0918998130389 0.101476213848 -0.309904586275 -0.193805501964 0.0562865489007 -0.0621051734737 0.120095118036 0.065591648193 0.0926705896652 0.0583687040382 0.0250557370252 -0.0186827430854 -0.0468701211182 -0.0446062494206 0.0838514129014 -0.0709797832025 -0.118249679936 -0.130454987238 -0.154933754863 0.348981952033 0.20734570472 -0.0420032455695 -0.1747549599 0.173016914248 0.0355432531255 -0.0655099307592 0.0121931272678 -0.0353617937547 0.0748330958778 0.33674100746 0.113658777882 0.130310061965 -0.222979893123 -0.0769656648183 0.135624833696 0.0177119675814 0.0788531678852 0.367372749487 -0.0409823996409 0.0539809072967 -0.189993392355 -0.0069554238726 0.0231664268339 0.0698136875931 0.0253529637759 -0.0561093163111 -0.162502311889 -0.00496883990767 -0.111296879584 0.176217341231 -0.199660508357 -0.0464865038347 0.246885901396 -0.381387984825 0.154348878569 -0.022628066901 0.306036637857 0.15523194071 0.132734931752 -0.0806812325343 -0.190115645245 0.114620236788 -0.21258885992 0.157902462659 -0.0365148513848 -0.210274185795 -0.0397802559938 -0.218765249923 -0.105048537371 0.0910198400741 -0.131701329044 -0.0328380709867
during 0.0213033201397 -0.0995932182902 -0.0771575326849 -0.0724387157233 0.239103072966 -0.113403263526 0.182145972315 0.345510676407 -0.0407288625197 -0.385088887578 0.000774953148057 0.0394549946631 0.0512272299548 0.0617259160549 0.241915822695 0.357975368739 0.0467445589104 0.273912296279 -0.258713627985 0.0444786337829 0.212186393962 0.111185858517 0.0294554926445 -0.186186823635 0.0024394054187 -0.136151433224 -0.0638520989261 0.17500398393 -0.0928944154977 0.103550896198 -0.319662081392 -0.186166808247 0.0523137835455 -0.0728562169425 0.123518429842 0.0743208510679 0.0933844253885 0.0647790128998 0.0276292170103 -0.0208384602375 -0.0406006804416 -0.0477918446282 0.0931037642492 -0.0735911511041 -0.128054059897 -0.130946917058 -0.16305025285 0.366175534268 0.207975148332 -0.041494457046 -0.176223064845 0.181518746353 0.0323615554346 -0.0632595955377 0.0158412167737 -0.0268477157355 0.0875203387002 0.346085010262 0.121204452304 0.13253884092 -0.225125326905 -0.0816987250438 0.137571560866 0.0139060057932 0.0817288104578 0.380515984248 -0.0365545622266 0.0623210041344 -0.189281374472 -0.00452685592718 0.0276157002183 0.07297611617 0.0265121280467 -0.0556429679741 -0.162604270169 -0.00321742040127 -0.115373777374 0.179985108274 -0.214782922994 -0.0506875914526 0.259033741994 -0.389221670069 0.153741330145 -0.0251015458594 0.316539785548 0.155203601869 0.1379635735 -0.0893098291057 -0.186855538757 0.109188011637 -0.22590915648 0.164178234924 -0.0383234248595 -0.222354978826 -0.043589104494 -0.217599502633 -0.110454285696 0.0867323916001 -0.143194247497 -0.0273714740246
into 0.0309077102896 -0.0991318888127 -0.0725212658275 -0.0784064067083 0.235831833771 -0.120389944731 0.178569962429 0.340133901884 -0.0407868286645 -0.381193620827 0.00543476010695 0.0335893025544 0.048771394693 0.0587339866042 0.233923027715 0.362397132917 0.0497074292501 0.273852295451 -0.256087989572 0.0529565411225 0.202585065162 0.111216537127 0.0265098100713 -0.181303048541 0.00567483938771 -0.138131186528 -0.0653562758178 0.173521636767 -0.099122431486 0.103698490275 -0.314314473305 -0.188291907342 0.0584870436765 -0.0730010442771 0.127981866235 0.0686658080784 0.0974153963053 0.0576940707402 0.0250830726169 -0.0160378530738 -0.0407077261018 -0.053802109653 0.0896434713581 -0.0710544495948 -0.124351139875 -0.129081889477 -0.151755590503 0.360082684396 0.203642738094 -0.0429617256918 -0.179798999272 0.166753149285 0.0347978655059 -0.0651498574408 0.0127413358997 -0.0291086737704 0.0846908141975 0.338392837224 0.117488331299 0.125432363352 -0.227172293221 -0.0813173783629 0.132206813906 0.0187411178975 0.084531427887 0.363342222195 -0.0370009377113 0.0540252941683 -0.186764223188 0.000894525309572 0.0245640613833 0.0753539101052 0.0225680677569 -0.0538111126005 -0.156423096922 -0.0060720023544 -0.112374222979 0.180632811368 -0.209941829676 -0.0503894457757 0.257579552438 -0.385280032151 0.157279217504 -0.0268477661838 0.316561951458 0.16043559112 0.134877325717 -0.0772555407199 -0.190759009901 0.110502946438 -0.22093900441 0.160234130057 -0.0343227051336 -0.213689981601 -0.0363436499363 -0.212222340917 -0.106044399342 0.0859168386909 -0.131509319611 -0.031891630513
republic 0.0314189624956 -0.100268597991 -0.0670142246254 -0.0712090531481 0.238504615875 -0.113987970468 0.180890564032 0.345619011968 -0.0371373224043 -0.387737405717 0.000877810057464 0.037907989931 0.0445937887049 0.0612408077209 0.23278790478 0.364342212545 0.0517599098784 0.277251392637 -0.260537983059 0.0547977751165 0.206839611474 0.113669567615 0.0328611054067 -0.182140536434 0.00763525535399 -0.128471017333 -0.0631760557348 0.171635798871 -0.0989195851345 0.0993053918279 -0.32167321412 -0.190628746511 0.0609707552474 -0.0718782472011 0.12169288248 0.0697886424676 0.0999449608322 0.0656506319957 0.0329033996392 -0.0218607756256 -0.0417094653989 -0.0541572105694 0.0904117952631 -0.0759233755017 -0.116035685989 -0.131902870734 -0.155889971732 0.36809539842 0.20970888293 -0.0401732664529 -0.181508678063 0.174551838193 0.0286861572599 -0.0705522712285 0.0131297420955 -0.0253862731869 0.0802207074646 0.340715266115 0.120613723269 0.129514326198 -0.225265709136 -0.0817290536876 0.132001982116 0.0161016073413 0.0924989825424 0.375517551408 -0.0386400242079 0.0685411146504 -0.185521366615 -0.00441556121952 0.0259315018022 0.0765132058621 0.0247454404468 -0.0508769084514 -0.164259431763 -0.00743358373956 -0.114907356384 0.175562071854 -0.215848069349 -0.0514538800997 0.247473969194 -0.394043274877 0.147498299292 -0.023126521109 0.315477983562 0.15566042874 0.143529349751 -0.0806147060127 -0.185819265772 0.116469124439 -0.225845652207 0.158171025184 -0.0332326950809 -0.215237798271 -0.0482962519887 -0.217385457722 -0.103031836902 0.0891578599316 -0.144581028602 -0.0259886193575
china 0.0322496179012 -0.098893162797 -0.0732985553428 -0.079576146307 0.244669273288 -0.112534594976 0.180270516414 0.339505161373 -0.0388291356434 -0.382597015031 0.00661025868837 0.0395669740251 0.0479715042559 0.0574251267578 0.236565116599 0.360659510712 0.0462107411764 0.277231843733 -0.258731344817 0.0463349808291 0.20517653458 0.115792459578 0.0255457072137 -0.192796237979 0.0100860062121 -0.138003981408 -0.0687829799003 0.174415209459 -0.0981286631765 0.0985263079281 -0.320121991746 -0.19429108003 0.0589126044579 -0.0662959952413 0.129457337876 0.0716837236025 0.0997391556983 0.0669472569118 0.0326429015665 -0.0253866441119 -0.0385741789085 -0.0520115350717 0.0881707894957 -0.0710499023615 -0.119500892038 -0.132294986002 -0.152413068575 0.361345220871 0.213033187922 -0.0470693459521 -0.182357224924 0.177854067703 0.0342571792707 -0.0600679634728 0.0105027954481 -0.0247521987712 0.0815781523776 0.346557705336 0.125793583429 0.129674461642 -0.223955050151 -0.0765927219979 0.142309604867 0.011878411037 0.0848982384472 0.376798557545 -0.0364749697106 0.0633635749177 -0.184896215456 -0.00764850631538 0.0258078604818 0.0773749099932 0.0251667486541 -0.0549416479027 -0.161887114165 -0.00699710127775 -0.112594914792 0.180632393731 -0.211375995608 -0.0559633334416 0.251760504985 -0.389740712357 0.151494570627 -0.0213263768821 0.315116016459 0.156739613992 0.139722854023 -0.0835235627696 -0.188667562039 0.112782027152 -0.21996342265 0.156709602317 -0.0410925816717 -0.221099560739 -0.0404983071108 -0.22305747687 -0.107435292463 0.0885069300284 -0.140475193778 -0.0305223926184
one 0.0290980622908 -0.100117578138 -0.070082750483 -0.0786664691278 0.239346715062 -0.111667532602 0.184725150201 0.345234604088 -0.0437275080103 -0.381857303696 0.00228476809913 0.0348522534556 0.0542700369069 0.0566231073581 0.238201663516 0.364686346762 0.0486641839227 0.274493070651 -0.250156645593 0.0558712319766 0.20108255228 0.107409265171 0.0261491292917 -0.191570319014 0.00623243246446 -0.140556508827 -0.0714913110617 0.177304802236 -0.0954536178207 0.108612665471 -0.31496966229 -0.187289539304 0.0560666635258 -0.0725146949661 0.125207909206 0.0764509684309 0.0934650283232 0.0516229965378 0.0246043276857 -0.0186596829622 -0.0472757861684 -0.0473758597999 0.0898989955917 -0.0664216380208 -0.118939539271 -0.124650888964 -0.149825631921 0.365842170248 0.206950869563 -0.0475189360362 -0.174212155568 0.164032695059 0.0304772821388 -0.058950971218 0.0176472247785 -0.0260176864808 0.0824743339233 0.348563133878 0.121876562312 0.129004341742 -0.226824481625 -0.0796073220955 0.142856373172 0.0190481394637 0.0821521362667 0.372774958768 -0.037171737222 0.052415377841 -0.187498347237 0.000353783531484 0.0207033789836 0.0784056916125 0.0196982792849 -0.0564200288771 -0.167327246344 -0.00633472841764 -0.111851554161 0.181553646561 -0.211302281509 -0.0436928412807 0.264373194476 -0.389684916609 0.160948438693 -0.0281333961824 0.313415229062 0.162535213122 0.137147500965 -0.0788045107558 -0.192976811957 0.1129936023 -0.224785940994 0.159840435441 -0.0433068484174 -0.224128598029 -0.0418148756756 -0.219802824235 -0.107363868501 0.0863326366886 -0.132832806698 -0.023151770576
system 0.0277658033403 -0.0999315210757 -0.0736393645685 -0.076970938194 0.243567226034 -0.118162718784 0.178557124493 0.343140652456 -0.040299351217 -0.387046389332 -0.000849552721402 0.0405870438044 0.0490646891199 0.0601560171633 0.235206186527 0.367795502949 0.0476664927538 0.275926200611 -0.256134890891 0.057626748038 0.213192603751 0.107866908691 0.032847342958 -0.186828276001 -0.000230040345322 -0.13494315059 -0.0742590866799 0.177581085953 -0.101477470002 0.109352644778 -0.323556785867 -0.189875634774 0.0563875901505 -0.0766226881246 0.123354592367 0.0678318886071 0.0907709709943 0.0627218762136 0.0328154134424 -0.0222440023677 -0.0385546339329 -0.0445648361302 0.0854291726851 -0.073875167867 -0.122985851426 -0.132430304092 -0.158688405748 0.371087624877 0.21408324269 -0.0430834496231 -0.180190665818 0.175156803364 0.0344827240711 -0.0659904792961 0.011964012411 -0.0316781129192 0.0800832331828 0.352514254164 0.125075730356 0.134848112071 -0.227866168407 -0.0828992398296 0.144859049384 0.0129485412369 0.0808593366843 0.380536922339 -0.0435523387477 0.0624965011057 -0.192083026857 -0.000915554516157 0.0225239091438 0.0755241417608 0.0267701616906 -0.0573784709681 -0.170350712913 -0.000836504286384 -0.110065431777 0.18430622925 -0.209403111992 -0.0476400057133 0.255135882815 -0.390524756709 0.158043280555 -0.0260989396966 0.326309907647 0.161223638194 0.143470377519 -0.0791787045417 -0.189650744402 0.117710284469 -0.225963583411 0.162133217479 -0.0371373912772 -0.220760652146 -0.0458857553421 -0.224173925104 -0.104980004939 0.0841945659208 -0.134287721068 -0.0321763368957
not 0.0249122465581 -0.0965742726878 -0.0696221486402 -0.0804185266487 0.241176548024 -0.113390196264 0.182394220342 0.342956598935 -0.0361532697499 -0.383529142102 0.00254617925089 0.0411655040622 0.0442291839963 0.0599385225736 0.235015678149 0.365076903063 0.049134693885 0.275338020442 -0.259797249179 0.0502016834459 0.212814306421 0.10924399888 0.0338718874624 -0.18530185572 -0.00134858811469 -0.131597765589 -0.0663982360251 0.178534482251 -0.0912698869166 0.106723399487 -0.318712771408 -0.187161233897 0.0521344898123 -0.0746807206067 0.126312492204 0.0694366350803 0.0961054550021 0.0586731046931 0.0309977106011 -0.0203848930101 -0.042428188897 -0.0457908154643 0.0840389093831 -0.0726095011051 -0.123821263999 -0.127080592418 -0.159662004299 0.360401666116 0.204301418556 -0.0449444945854 -0.182124059226 0.167630349935 0.0344133037667 -0.063426915195 0.0136803401674 -0.0331592422918 0.0830848034052 0.342550100077 0.117259042284 0.136132287672 -0.227516589827 -0.0801027266447 0.136495039603 0.0160593238499 0.087137660175 0.375132381494 -0.0402184837137 0.0590429973772 -0.187803474518 -0.000293499580962 0.02139614801 0.0757203758558 0.0228929615699 -0.0552874223535 -0.158894205937 0.000145478484935 -0.10552131429 0.182244019505 -0.205618507697 -0.051670614363 0.253876513993 -0.391698945574 0.158444226506 -0.0210994864102 0.323727659255 0.159033402389 0.141830161935 -0.0840388257043 -0.191487228665 0.117003153038 -0.218158584215 0.156908335005 -0.0365341886581 -0.213949656183 -0.0382837006537 -0.223393096662 -0.107734538971 0.084632809801 -0.13531422545 -0.0275333796451
trade 0.0296677310198 -0.104419025252 -0.0742523883586 -0.0742871767409 0.243422538811 -0.118046753492 0.17914542741 0.345797721174 -0.0397130959306 -0.384705211597 0.000567277908845 0.0353411201715 0.0458040324618 0.0647593428931 0.238746838936 0.364384230524 0.0460381861965 0.283259226077 -0.261351244771 0.0544818972901 0.212571139205 0.118621926399 0.0266774124871 -0.190191384054 0.00014046565487 -0.131035425608 -0.0722208645236 0.176245219714 -0.0950172562342 0.100260934475 -0.324644520581 -0.188090850548 0.0629534329091 -0.0670949180316 0.130335566541 0.0727816861885 0.100303327845 0.0552314045189 0.0313677670696 -0.0241369055383 -0.0438996632432 -0.0524449796799 0.0898398393051 -0.0702847128573 -0.126011351355 -0.131274321212 -0.155746332513 0.369422790268 0.208478279525 -0.048925687251 -0.182872778892 0.170781386228 0.034665316634 -0.0689467249803 0.0153921357543 -0.0298958804292 0.0804732281699 0.34995042668 0.129053376794 0.136546930779 -0.226174903657 -0.0761827231079 0.140655623656 0.0193223641103 0.0910092301305 0.375162902823 -0.0418108710038 0.0575528416916 -0.189858854856 -0.00261521736483 0.0214298717863 0.0778513105401 0.0233065491053 -0.0555453773179 -0.16208154093 0.00223673316499 -0.11801009699 0.173856774559 -0.218084532052 -0.0518390646617 0.262457928862 -0.395780934551 0.160676455279 -0.0275068143147 0.319375547991 0.163469534022 0.141917887716 -0.0848710821396 -0.190961288844 0.116581662228 -0.229868391681 0.160983171219 -0.0423570742695 -0.227584612778 -0.0403415541713 -0.22135914635 -0.111735080318 0.0905828495416 -0.135296479536 -0.0271215205882
united 0.0220765911435 -0.0932960646188 -0.0684647311508 -0.0768003560886 0.226775058289 -0.114760360342 0.176856115504 0.32488753261 -0.0380178420305 -0.370296204474 0.00444211945742 0.0371223417482 0.0398868855969 0.0586593236723 0.224626443953 0.350566627226 0.0499217921777 0.268268784302 -0.247908310748 0.0456394499555 0.195751188067 0.107204574775 0.0325976446658 -0.182282508624 0.00747754846141 -0.124724647004 -0.065010055519 0.171138137355 -0.0944282436611 0.0972847652508 -0.300556385596 -0.180065835702 0.0571325757331 -0.0626886745923 0.121741283261 0.0642119628147 0.0899057641345 0.0571406653662 0.0282828597785 -0.0253137750399 -0.0442977664724 -0.0522299899576 0.0809021766418 -0.0669168951645 -0.110830745956 -0.12897907784 -0.14850409783 0.349246049784 0.201790199512 -0.0392164212848 -0.169048499884 0.170395612361 0.0332282447261 -0.0673683234747 0.0111491850688 -0.0280958333402 0.0821426775578 0.332049566783 0.118499506176 0.121096945028 -0.216666802441 -0.0734257824787 0.125461515839 0.0129493403346 0.079609334037 0.358945846878 -0.0411646397142 0.0629968269665 -0.180297464886 -0.00960853714982 0.026172448504 0.0739544249258 0.0191686238363 -0.0518310027431 -0.156065892217 -0.000824829949655 -0.104342598186 0.165923374139 -0.201548739137 -0.0521293996715 0.240283304201 -0.374043319872 0.141173570103 -0.02732290715 0.306597988845 0.151002250547 0.133285970882 -0.0799155511524 -0.186439808486 0.104005888959 -0.216755508722 0.153638500711 -0.0327793363289 -0.212204037938 -0.0406852924413 -0.214117072414 -0.103915208454 0.0868932405112 -0.13287630091 -0.0290322406403
university 0.0290608966222 -0.0971288104444 -0.0652303850033 -0.0843442811295 0.237417143494 -0.111634944768 0.184117367394 0.339415342443 -0.0370923883309 -0.388037762626 -0.00138621921431 0.0423332503534 0.0549684619947 0.0620585501534 0.240327006716 0.355173400483 0.0436914610671 0.272657903798 -0.252806432851 0.056114430712 0.207987393716 0.11388736884 0.0296340751205 -0.18326645397 0.000403146924694 -0.138829466717 -0.0722857347407 0.172848099517 -0.100336431903 0.111341623186 -0.315467483192 -0.184896367193 0.0509822686826 -0.0773578740926 0.120473828329 0.0682442390383 0.0937045517204 0.0476682821184 0.0275808890765 -0.0250296265655 -0.0405022905955 -0.0463421238463 0.083802123857 -0.0660100361105 -0.129009784454 -0.125124683351 -0.155368263521 0.365230716577 0.20526395488 -0.0444326898415 -0.177530836781 0.158597893624 0.0395009034925 -0.0652357331064 0.0170945971244 -0.034350394943 0.0804062653073 0.344095498822 0.118479913755 0.125908400927 -0.231945967238 -0.0749369204163 0.135577762276 0.0196974883701 0.0826082589159 0.365669487263 -0.0432068267056 0.057360899204 -0.191746608224 -0.00220365806194 0.0254997826448 0.0749391760612 0.0221547447398 -0.055379761708 -0.169567834837 -0.0112619155518 -0.104249699316 0.182717014326 -0.201496176713 -0.0463266126348 0.26489472138 -0.381375135642 0.163619302842 -0.0213581117492 0.317458224991 0.156610473439 0.134111238564 -0.0772496007333 -0.197252607756 0.117288731 -0.22492018173 0.152443240566 -0.0467766679305 -0.221773461045 -0.0373692986142 -0.211633749326 -0.107069022593 0.079753604171 -0.126755558478 -0.0237974599684
were 0.029814982344 -0.09445101009 -0.0740039336655 -0.0718402353217 0.236797922419 -0.116563991698 0.180871554348 0.334762338325 -0.036033854158 -0.379100043067 0.00179598725146 0.0336946184911 0.040650298821 0.063005279345 0.230465607573 0.355289404566 0.0500696866147 0.273031840235 -0.251435669456 0.0519007009694 0.209600590729 0.107434852232 0.0291692800629 -0.186828432817 0.00429496661019 -0.135875440903 -0.067026662348 0.166632443322 -0.0951522681598 0.0993156253382 -0.304844864026 -0.19195882972 0.0588404870472 -0.0658207977422 0.11818485749 0.0678801869278 0.0938341039188 0.0541429096422 0.031080941149 -0.019440342428 -0.0423024995667 -0.0517215879244 0.0853548255491 -0.071293594754 -0.123063608402 -0.12747705182 -0.151567239486 0.359344092129 0.203869922031 -0.038352857765 -0.172844428787 0.171926078094 0.0361612898602 -0.0612911000205 0.0182967343169 -0.0275508117952 0.0811649148886 0.340448835227 0.122215234073 0.128776749407 -0.222671962805 -0.0820011622526 0.135390748995 0.0121432461286 0.0825514420495 0.36833665189 -0.0404268368915 0.0638912734478 -0.188665257112 -0.00844891210719 0.0258002142574 0.0765725665547 0.0303578289093 -0.0558737264151 -0.160452223854 -0.00770593482148 -0.104959272961 0.175137815252 -0.206443706064 -0.0513926686477 0.251649847909 -0.376758461747 0.151495996237 -0.0240313094335 0.315438670949 0.159229295796 0.139030750066 -0.0805393515349 -0.185259055796 0.112802924509 -0.219127886281 0.158561855525 -0.0360885872167 -0.213790005499 -0.0418546368016 -0.217806684751 -0.0992745959018 0.0842839993156 -0.141329875677 -0.0292090586755
at 0.0223025510944 -0.100809206343 -0.068607997392 -0.0817251936166 0.23591098981 -0.112226909069 0.180346709543 0.337778048592 -0.0417562513314 -0.382159337223 -0.00141878698917 0.0370863450922 0.0521395047061 0.0590271628437 0.228701183607 0.358145449393 0.0416555176609 0.267781638253 -0.243092512096 0.0484099135297 0.197028848413 0.113383032739 0.0272299358164 -0.183609903432 0.00731057609216 -0.136499508332 -0.0715681927286 0.165211208132 -0.0964754274341 0.101257016893 -0.31186039046 -0.183961646495 0.0613887247414 -0.073651719466 0.126833034493 0.0732280751072 0.0930832337439 0.0568831475004 0.023894664598 -0.0173051832344 -0.03992754995 -0.052013507056 0.0877065488755 -0.0666324552798 -0.117864114062 -0.120951288511 -0.155776628911 0.35877919814 0.202480012228 -0.0468349396389 -0.175864023838 0.15939498195 0.0372826091333 -0.0665110067386 0.0136593639232 -0.0319242821792 0.0809421721334 0.344034390483 0.117137327171 0.131080854409 -0.230949368861 -0.0789182624863 0.130496726795 0.0113747150165 0.076390362809 0.362279994226 -0.0413340814231 0.0607724181853 -0.18472756852 -0.00325248397329 0.0175147289689 0.0747651491965 0.0161029126678 -0.0530068250779 -0.159412452189 -0.00707168993796 -0.108090801828 0.176010181329 -0.208412647882 -0.049464513865 0.251577294556 -0.37676311543 0.159904172781 -0.0225949504427 0.317137878564 0.154572425651 0.137106534822 -0.0855857688566 -0.193343846556 0.116100190084 -0.215705749852 0.149640631217 -0.0356883822339 -0.21995113021 -0.037414182629 -0.208645061777 -0.100960764478 0.0860987304008 -0.138086385778 -0.021952123017
chinese 0.0305051395348 -0.101374465515 -0.0697437033619 -0.0717971079679 0.228980989336 -0.113217135632 0.17763327343 0.331986366274 -0.0407432297562 -0.370321361267 0.000843778611864 0.0381185173486 0.0396362029041 0.0604872766119 0.233750190819 0.358705807818 0.0522759760927 0.269459147259 -0.253761949907 0.0527731387991 0.208057519644 0.110959970975 0.0273737628499 -0.187104253634 0.00770337911844 -0.124792205846 -0.0708289012396 0.168707049655 -0.0959184391501 0.0979104766946 -0.30976715834 -0.184655388027 0.0598836229229 -0.0704582373052 0.126926719057 0.0727699006285 0.0936151022731 0.0639489677665 0.0328200420495 -0.026106183773 -0.0372301355274 -0.0456846852739 0.0862594307057 -0.0714543205931 -0.112815167708 -0.126116088072 -0.155117191152 0.357781671208 0.206795275857 -0.0476034450093 -0.180168213366 0.173706462562 0.0326776996554 -0.0619778285127 0.00878447010189 -0.0288748147377 0.0755466643023 0.335230569037 0.117690142476 0.130390280215 -0.218599296636 -0.0803610282741 0.131995286589 0.0172069153905 0.0867696080981 0.364347818075 -0.0373730856049 0.0641866131953 -0.186072925784 -0.00867551611635 0.0205389765979 0.0773878789191 0.0211687270414 -0.0501207835814 -0.156807847197 -0.00161394681774 -0.10339978999 0.17608440044 -0.210281769751 -0.049850018252 0.252300927387 -0.38285297342 0.145247931679 -0.0262753741223 0.310204967702 0.155477194765 0.138388624741 -0.0791280916462 -0.181876800755 0.108473032155 -0.212324033 0.157455786475 -0.0329917904122 -0.210564394061 -0.0460995835521 -0.220746021615 -0.105845673225 0.0917748916709 -0.139504138284 -0.0339033114808
relations 0.0281351460249 -0.0913501132918 -0.0743272681771 -0.0742219942193 0.235706408053 -0.119270521386 0.181610075952 0.341636347759 -0.0401874843166 -0.377801818536 0.00509206951928 0.0409669868316 0.0391352918047 0.0652688324993 0.229599546884 0.355248915366 0.0454172509525 0.268737602333 -0.255359826828 0.0424130734447 0.213045060405 0.112795792343 0.0240655148098 -0.186385454197 0.00822730128132 -0.131166675127 -0.0623079358615 0.173349670245 -0.090971687658 0.0974379064464 -0.315255757203 -0.186666190189 0.0561417096805 -0.071364666164 0.119829694367 0.0670341864349 0.101219073216 0.0643341787123 0.0336757058349 -0.0296352928986 -0.0415238029562 -0.0455331328117 0.0877114426087 -0.0734650748988 -0.118819849634 -0.125276927182 -0.151534744595 0.356953021445 0.209103763468 -0.0443026648145 -0.180491965818 0.178387332127 0.0277987330743 -0.0637249281034 0.0113303186853 -0.0306197608923 0.0841818742006 0.340459383009 0.118916414898 0.125624156007 -0.219588804697 -0.0790166082231 0.130879975053 0.0159461706335 0.0872929408242 0.370084398288 -0.0411900737202 0.0666240283532 -0.187221225104 -0.0126121179452 0.0260888602231 0.0780942768829 0.0256318997449 -0.0560537942537 -0.163176427934 -0.00487045726049 -0.107659700616 0.168324993407 -0.213112016523 -0.0504752805384 0.24395238253 -0.39001988855 0.144358157746 -0.017960223239 0.311044657527 0.160504280939 0.134217415924 -0.0804401010054 -0.18547369083 0.111771004085 -0.220464776442 0.155497554091 -0.032127498983 -0.214818245924 -0.0452010880995 -0.211206722897 -0.101398417135 0.0881487715451 -0.142511484062 -0.0332189451525
states 0.0268934652553 -0.101025833682 -0.0682919978501 -0.0793072550133 0.240125485496 -0.116978313315 0.179301636351 0.334886739813 -0.0332647654955 -0.376782906425 0.000986898589901 0.0338800826395 0.0416840692699 0.0616728879853 0.230157967832 0.353381821248 0.0486139629624 0.276804709495 -0.254709870733 0.0491176167054 0.207925294716 0.109747278024 0.0288581827458 -0.187623743302 0.00551452360498 -0.130264366779 -0.0707047729857 0.170891146285 -0.098852364596 0.104954238971 -0.314319925091 -0.192444046318 0.0583041291358 -0.072605084597 0.126944035786 0.0653338219157 0.0934549501669 0.0585420935811 0.0223483204269 -0.0231192197704 -0.0433965347504 -0.0518685374842 0.0879724779229 -0.0649116187286 -0.117799169134 -0.128422713439 -0.154753573945 0.359373879507 0.20847657232 -0.0436607859534 -0.180738864163 0.170467140393 0.0292214268082 -0.0677037137802 0.00854417930846 -0.026565341221 0.0770320170739 0.34494885905 0.123469168133 0.127501441774 -0.226057496627 -0.0743297482522 0.138982199218 0.0179886710362 0.0857778007049 0.37174015066 -0.0439895903161 0.0595295928997 -0.183605656401 -0.0077241503624 0.0197093112449 0.0767842303179 0.0259683846199 -0.055875251029 -0.163320134372 0.00248839793364 -0.107138604928 0.176803253374 -0.207189885089 -0.0470445836743 0.252517840146 -0.386762123655 0.152956143279 -0.0294798105923 0.320171032442 0.16143972867 0.131373383261 -0.0855968487604 -0.191275767663 0.11591357801 -0.217731797226 0.151555694102 -0.0412126751159 -0.219799544412 -0.0434040042763 -0.21769727209 -0.102361658204 0.0930732079925 -0.137270118311 -0.0292329297768
th 0.0283548691224 -0.0980646223267 -0.0735095604339 -0.0773949630396 0.233125796869 -0.116601853334 0.178100851598 0.332296694842 -0.0410972188912 -0.371177778699 0.00631666756895 0.0368591637172 0.0472657691 0.0522194722203 0.233143656748 0.346820572212 0.0427981231615 0.265203598173 -0.247931964805 0.0523376169063 0.198372196059 0.108160678214 0.0326376063548 -0.18182965661 0.00098553478787 -0.129562846867 -0.0706596757686 0.163444920334 -0.0932288027644 0.103629369116 -0.308233981454 -0.189416539066 0.0522703031 -0.0686373359847 0.124937661881 0.0693037956449 0.0934588984149 0.0585027264879 0.0288284391892 -0.019706358707 -0.0464167314743 -0.0461030556265 0.0830156074412 -0.0707953473883 -0.115514602523 -0.119899484014 -0.152447809814 0.352943050045 0.198152534095 -0.0374397955747 -0.177340424308 0.170857373964 0.031676035979 -0.0610467985247 0.009072547578 -0.0304532748094 0.0802839835075 0.331096113203 0.119325503648 0.121488091251 -0.223782204459 -0.0796804087959 0.130904493236 0.0139365155043 0.0811944899653 0.353765344606 -0.044974674038 0.0580966845888 -0.185961329918 -0.00773975012047 0.0208735785259 0.0693217681724 0.022858149778 -0.0566325369646 -0.157369757034 -0.000820176967671 -0.112990102141 0.171558295216 -0.203868072502 -0.0512302619961 0.241227450416 -0.373635160885 0.151477448219 -0.0228586349371 0.310602803772 0.157119215174 0.133994354932 -0.0799657694417 -0.188498579508 0.103221013048 -0.211324166278 0.15787008402 -0.0365425399926 -0.211335160837 -0.0403121458188 -0.208834357194 -0.104235000059 0.0821669705134 -0.135158927467 -0.0318786201132
which 0.0284726349837 -0.103920020296 -0.0665126389474 -0.0751685512039 0.240116108855 -0.111803233911 0.178173040879 0.341639623751 -0.0432118957628 -0.37437238678 0.00303512999389 0.0406440438467 0.0448246706629 0.0567607710394 0.235777782777 0.360940268438 0.0491879932831 0.275976743353 -0.255220623673 0.0523568394238 0.201927351853 0.108349395082 0.0330297734283 -0.180503514194 0.00731407760247 -0.129903809808 -0.0654400383878 0.167387474334 -0.093756553073 0.108605103362 -0.31614370036 -0.190738393113 0.0536897954895 -0.0700030688456 0.125692684815 0.0732733250144 0.0921335005343 0.0575601552603 0.023998580176 -0.0262434664971 -0.0434586919043 -0.0450628074656 0.0818411702692 -0.0713995122276 -0.120657120057 -0.126932886764 -0.151953678317 0.356027524713 0.206540553487 -0.0434550395492 -0.17199274922 0.172563609846 0.0353567950853 -0.0589563480526 0.0131902581813 -0.0301272001337 0.0776268616899 0.343626885287 0.125778384781 0.12947821526 -0.225382859876 -0.0790273964613 0.140209017541 0.0133219163698 0.0784397996934 0.370760820326 -0.0356864589347 0.0547234334501 -0.191037845909 -0.00403177340162 0.0182703641719 0.0741354391518 0.0203296996303 -0.0595063413344 -0.157116419488 -0.00365223277228 -0.112553869939 0.177801401505 -0.204215397003 -0.05195420123 0.254224452152 -0.384185122239 0.155582969759 -0.0261836570727 0.317190484723 0.152013490727 0.136589716518 -0.0803045485951 -0.191597047649 0.108245063797 -0.214888653276 0.15966943213 -0.0406575893339 -0.220407946493 -0.0456815419766 -0.216194932119 -0.104266864526 0.089319205608 -0.130555543053 -0.0321707895754
after 0.0226576630997 -0.105733409267 -0.0746459512913 -0.0728919081324 0.243112559821 -0.112877843142 0.189057911285 0.343491096609 -0.038215366233 -0.396194715383 -0.00227105822222 0.0393596148089 0.0446083208789 0.0649157876295 0.241019943779 0.366100914712 0.0518768044719 0.279747343687 -0.265222348857 0.0470398401753 0.215632284678 0.113862036906 0.0269497837614 -0.19053168456 -0.000177085268871 -0.139534052663 -0.0660449045875 0.180136838764 -0.0974972359467 0.105926919946 -0.318375592713 -0.190642953071 0.056887559938 -0.0685297050194 0.124314156348 0.0714887640833 0.0965731972641 0.0558087573933 0.0302541342864 -0.0261729975188 -0.0381738651024 -0.049390189872 0.0847311553241 -0.07895332578 -0.123051712481 -0.133735579796 -0.159375405241 0.366971592324 0.210217577143 -0.0471357747482 -0.182261966599 0.180024907745 0.0287072955891 -0.0664028335291 0.0111965629875 -0.0330186157414 0.0850670464507 0.355174223276 0.125903539088 0.135769435589 -0.235586581646 -0.0758897882519 0.135696638369 0.0159875917181 0.0860875315894 0.376014679977 -0.044929316531 0.0561886367976 -0.189391988491 -0.00689750810657 0.0223215691642 0.0745958845683 0.0206437350163 -0.0535411855555 -0.161108701861 -0.00457125877778 -0.118896256617 0.178071219439 -0.214720963352 -0.0547971647693 0.256322174599 -0.389648467763 0.155545242313 -0.021240367975 0.327988183144 0.15869663086 0.141526244086 -0.0829368156544 -0.191951721055 0.114913273301 -0.231042844153 0.16593687162 -0.0406673078786 -0.227653965464 -0.0443538528989 -0.218823676308 -0.113880166691 0.0860954940402 -0.14268349902 -0.0331896466995
an 0.02415487437 -0.10205167106 -0.0739339022486 -0.082974068002 0.236187129605 -0.113192124939 0.181613618923 0.340331839671 -0.03713652628 -0.389014209365 0.00263626781036 0.0409031809973 0.0505693416393 0.0567735349679 0.240744661399 0.36229873169 0.0499367076603 0.28090197411 -0.252403444258 0.0565273894041 0.212223392809 0.113233428915 0.0311058191841 -0.184852395387 -0.00252682583751 -0.142144438497 -0.0689014629085 0.172842525037 -0.0997756682817 0.108548926029 -0.318338847349 -0.187560458548 0.051597927815 -0.0704341317407 0.130540049588 0.0713712679606 0.0917499039838 0.0593489980992 0.0311255192975 -0.0165811252687 -0.0431824831787 -0.0464276531482 0.0845698217697 -0.0673520387477 -0.130341236248 -0.123937384904 -0.157564403454 0.362881548944 0.20221624852 -0.0488352550078 -0.185875871318 0.166359441209 0.0323709974654 -0.0631435331934 0.00979966128578 -0.0345916607882 0.0837535535363 0.35219020661 0.128033125558 0.137064281649 -0.236756125307 -0.0783274907298 0.142157278235 0.0191073636308 0.0889373109066 0.372008581597 -0.0450121121534 0.0516592862433 -0.186438250755 -0.0046075208341 0.023299615432 0.081837428905 0.0209991273289 -0.0567306504491 -0.163271674215 -0.00665387080253 -0.114775569179 0.179326249651 -0.21060931434 -0.0484393944345 0.264683910486 -0.386560802019 0.158793624377 -0.0199731663982 0.319033663973 0.158604801808 0.13815139273 -0.0858768738838 -0.197581705508 0.118332068693 -0.221645156748 0.155650514713 -0.0363940478639 -0.225253153287 -0.0361596423966 -0.220742927762 -0.105402164617 0.089497318761 -0.136284879783 -0.0232276209636
high 0.0268833805117 -0.0970867293481 -0.0649113733548 -0.075121413115 0.237378466387 -0.11219601853 0.176640374442 0.330915924168 -0.0450181732194 -0.375188809897 0.0063105921968 0.0389035281531 0.0507498398251 0.0533146071043 0.236969314295 0.351601795899 0.0434992640724 0.270016822037 -0.251817094852 0.0548297553503 0.201559819837 0.111980315046 0.0343760111565 -0.187341447171 0.00726490258849 -0.14002020829 -0.0713165229437 0.172451933235 -0.100513035936 0.10113625684 -0.308783806158 -0.189423103469 0.0567544850234 -0.0716129503653 0.115935550234 0.0715544363388 0.0923666731766 0.057245484905 0.0320461067139 -0.0175811825487 -0.0382924568371 -0.0495015207674 0.0836559662279 -0.0692144274733 -0.122480939507 -0.12605011467 -0.154073295893 0.35885583345 0.203254829883 -0.0435683167639 -0.174332850631 0.160046790075 0.034534956653 -0.0587019386945 0.0129013409731 -0.0254763453819 0.0773772961371 0.335991388107 0.121015958544 0.127856858822 -0.221640442826 -0.0775932515726 0.141799931868 0.0104443115767 0.0778085047937 0.357929134546 -0.0405360108017 0.0552379852689 -0.187037586842 -0.00326971453001 0.0201907676436 0.0792906616063 0.0242892628152 -0.0585229667928 -0.16362808119 -0.0084865789692 -0.110705958557 0.179193325916 -0.198428273505 -0.0439545526974 0.257042460582 -0.378885172998 0.159090590143 -0.0183348241046 0.314392948605 0.157799435963 0.135644304827 -0.0771073640309 -0.192442857979 0.112308385431 -0.220312842257 0.155404207804 -0.0415756951705 -0.220678890956 -0.0339419314427 -0.206893505408 -0.104357318951 0.0872018424135 -0.126441409018 -0.0250283756512
most 0.0313430633059 -0.0977216614195 -0.0743003513835 -0.081303929679 0.238964793682 -0.110704984454 0.182820477222 0.338924658763 -0.0406659042814 -0.390936163069 0.0061894970433 0.0400683022909 0.0451279157214 0.0580638323066 0.244039783842 0.357365635713 0.0498658531523 0.276681007498 -0.257632429574 0.0481438083976 0.210809173474 0.105473125887 0.0306888809436 -0.185150979837 0.00318824414511 -0.139934522908 -0.0729055941888 0.170308099954 -0.0990583048372 0.102904809588 -0.321362044252 -0.197652583366 0.0543861588162 -0.072426990439 0.123338909232 0.0710697762788 0.0929010322767 0.0572486378509 0.0229676571952 -0.023329857294 -0.0437781309459 -0.0469205813111 0.0883501463976 -0.076850266027 -0.127786479146 -0.126590170813 -0.151414138088 0.369206712821 0.211035875073 -0.0480820758143 -0.177335729179 0.16877374309 0.0336016367033 -0.063914643731 0.0181219856992 -0.0316268103031 0.0789455393857 0.346072357952 0.12567747062 0.137094474539 -0.229543741277 -0.083781732594 0.145747004128 0.018857795088 0.0865778970385 0.370008363439 -0.0382593007403 0.0523611934774 -0.18798866686 -0.00870776745368 0.0202382569327 0.0806024897927 0.0274981876118 -0.0593466091959 -0.1624603 -0.00771705947764 -0.10742368201 0.1809475235 -0.209995165458 -0.050995653696 0.263085192764 -0.392498320729 0.157379434271 -0.0276690434265 0.315691859357 0.157762450862 0.141628621213 -0.0785249377709 -0.195027784247 0.113444964626 -0.222288214069 0.159287229262 -0.0416910316932 -0.21985305739 -0.0435137948768 -0.218207375704 -0.106199600112 0.0869951163779 -0.130393431664 -0.0304448961547
have 0.0292003188304 -0.0959377985687 -0.0708159710796 -0.0735489934912 0.236641879336 -0.10876105254 0.17653095432 0.338109364109 -0.0425305186058 -0.382796827809 -0.00070823669133 0.0376502928942 0.0481012984381 0.0641256364079 0.237042527419 0.350593983385 0.0452486689258 0.266171670845 -0.252778804118 0.0542803405716 0.202343873616 0.109943342631 0.0260068864816 -0.179383120037 0.000569686966036 -0.129100706751 -0.0643025001616 0.170532088836 -0.0993272201977 0.107388372183 -0.309934202764 -0.18734645856 0.0536553081489 -0.0736058767133 0.126098877673 0.067551666085 0.0909714064246 0.0524406414632 0.0296723956256 -0.0241149429867 -0.0468720902018 -0.046091398328 0.0835059444465 -0.0728915634049 -0.116431263347 -0.125731026122 -0.150355427242 0.352344341984 0.208847271504 -0.0410348163098 -0.176485953915 0.16346881589 0.0307048667784 -0.0661253439309 0.0171091912427 -0.0258592618493 0.0762811248579 0.335831845889 0.115254637587 0.130544908191 -0.230412944925 -0.0751869704084 0.13795051065 0.020192465143 0.0840820179552 0.367259089642 -0.0453200814173 0.0548531076443 -0.186134994917 -0.00807303562039 0.0185532552986 0.0772760609809 0.0263856208538 -0.0600009096093 -0.165372407885 0.000708514194707 -0.110829847658 0.178168678221 -0.202144657321 -0.0447953566153 0.24871499742 -0.382335851878 0.156802842655 -0.0196011035903 0.315053268655 0.157462536584 0.138613127787 -0.0846085972019 -0.193109214576 0.117030555514 -0.214766981447 0.158366694981 -0.0368376331172 -0.221522560317 -0.0350155252785 -0.213298135776 -0.108614949817 0.0826366794165 -0.130425566617 -0.0265081070187
it 0.0291164204365 -0.100221185937 -0.0726786384276 -0.0726574055024 0.227400931253 -0.108371578841 0.173953585 0.329073397374 -0.0417644520944 -0.370662403162 0.00361912629866 0.0362763565605 0.0449448539179 0.0610649576783 0.230442273104 0.349494091482 0.0470867726329 0.267330061843 -0.25006763128 0.0527662277147 0.202348074336 0.103364810289 0.0278140176916 -0.176957338612 0.00397165899625 -0.130330515722 -0.063525786531 0.170491385667 -0.0918553174343 0.104167982248 -0.308582757963 -0.184824994833 0.0559579325072 -0.0711985984541 0.115963824058 0.0659905291908 0.0888796120353 0.0524264117065 0.0309201839756 -0.022405885091 -0.0458560477021 -0.0468775650237 0.0860864563401 -0.0758917452025 -0.112859802398 -0.128321804806 -0.149186730195 0.348898332078 0.203854562995 -0.0435698630153 -0.176050298263 0.162066231675 0.0295117836006 -0.0632085940238 0.0129710947389 -0.0256253394196 0.0760399799138 0.331123843668 0.115929421051 0.128116194747 -0.22129086301 -0.0780645593903 0.130822167425 0.0122320867919 0.0833034584479 0.357473619836 -0.03882263238 0.0616952785737 -0.179608607687 -0.00772616507606 0.0220553089351 0.0705765110713 0.0248977193401 -0.0522948633551 -0.160510137442 0.000350993056621 -0.109327910848 0.175419647729 -0.204406898929 -0.0477974727359 0.24928931647 -0.368911170948 0.153357490307 -0.0246779849468 0.30364925305 0.148916995571 0.127551595234 -0.0838371934837 -0.1801832128 0.108294039484 -0.21661347297 0.153249693327 -0.0361177528113 -0.214012980013 -0.0424939674935 -0.206901418622 -0.107576070575 0.090734066559 -0.138283221742 -0.0263391394523
japan 0.0282425073212 -0.0987072806691 -0.0693982754472 -0.0690327965275 0.236448751685 -0.112616954153 0.176518543342 0.333452782618 -0.0403369449751 -0.37496504773 -0.00175685528109 0.0365923016074 0.043801354433 0.0597009868091 0.234489880859 0.350867091775 0.0464200271298 0.273659091501 -0.247385976948 0.0445259553043 0.204185360629 0.105719865873 0.0318720045399 -0.179417221372 0.00648901103562 -0.131211578919 -0.0629317822531 0.169755338855 -0.097030286322 0.0973431877339 -0.305115586358 -0.180905341365 0.0605992928352 -0.0675276602873 0.124136410203 0.0691173545263 0.0896701022261 0.0573733176091 0.0280974637243 -0.0252864908775 -0.0361779507592 -0.0527946905244 0.0825933398766 -0.0696948947311 -0.114726195966 -0.123015755991 -0.159204912484 0.358123151623 0.201816364088 -0.0406224199533 -0.173523989766 0.175505483429 0.0353734977486 -0.0629024374237 0.0128366046954 -0.0282521385037 0.0862699808011 0.332042274973 0.119724144219 0.125848017551 -0.221321561758 -0.0822592729795 0.133359946441 0.0104377397634 0.0796569444306 0.370030705777 -0.0408297191569 0.0643739856543 -0.186964092184 -0.00485663313559 0.0241838573888 0.0684614037687 0.0191841443263 -0.0579363129074 -0.155469674579 -0.00105735331894 -0.112167338889 0.175172806774 -0.206516416394 -0.0460114820666 0.243363044245 -0.384311190746 0.151239672809 -0.0206781527032 0.316126590717 0.15223827435 0.134909518445 -0.0838698825168 -0.185857167366 0.106949663296 -0.221301865189 0.157226108055 -0.0346128542148 -0.213577812209 -0.0416552429732 -0.212791147812 -0.105540194958 0.0928566034837 -0.139991561187 -0.0293827996456
largest 0.0259976161566 -0.101392288176 -0.069216169258 -0.0750378123725 0.242300233627 -0.115442568894 0.184019591151 0.344203044428 -0.0406958763388 -0.387517934864 0.00574422635805 0.0330135709388 0.0426653336738 0.0658707860449 0.236005674174 0.363227751229 0.0495496397151 0.27705379285 -0.254483547063 0.0551891334391 0.207478785633 0.10551418843 0.0350608085634 -0.183745744708 0.00601759869062 -0.132121915617 -0.0648659529879 0.174475543723 -0.101648355617 0.109584164766 -0.315742741315 -0.194195312379 0.0553988118405 -0.0662456350224 0.124737952956 0.0682255816767 0.0937994052409 0.0563016865762 0.0261263642878 -0.0199861434559 -0.0407265540741 -0.0531171437899 0.0907070694424 -0.0678477012362 -0.122294199121 -0.133883766002 -0.149873632783 0.367713415024 0.211411874407 -0.0465607028171 -0.18442344005 0.174254243792 0.0283255417492 -0.066565742532 0.0184873484575 -0.0265808394891 0.0813480688572 0.348787983576 0.118334521736 0.12857042426 -0.233912852315 -0.0753752840248 0.133925620329 0.0141978257632 0.0858412580893 0.374943019806 -0.0443583862919 0.0531370053509 -0.188661365153 -0.00104218616781 0.0224599596861 0.0760332728546 0.0237505315081 -0.0516602784132 -0.159971481143 0.00188723859128 -0.115588848458 0.174541766534 -0.212944682477 -0.0487173614148 0.260285206181 -0.390605685882 0.161021202367 -0.0280437041282 0.317022451885 0.154263801233 0.138866357312 -0.0825151280898 -0.194249311283 0.117654776441 -0.224309708426 0.159037189253 -0.0380929232443 -0.222740152488 -0.0453157652117 -0.21670664724 -0.108288358967 0.0882007012652 -0.133286476962 -0.0300347762782
between 0.0277105158434 -0.0932092335412 -0.0699394851648 -0.0798966890763 0.229638351315 -0.117756536793 0.182216110693 0.336746179454 -0.0343896763841 -0.369440803236 -0.000555042787967 0.0332400900138 0.0410424235948 0.0548032086415 0.233740774197 0.357090724578 0.0526850446807 0.266282909829 -0.249132536972 0.0492371814864 0.204253997631 0.109638506657 0.0325042746581 -0.183316753222 0.00228899952679 -0.127663851061 -0.0676546453875 0.172032162687 -0.0909683638139 0.101013780777 -0.310889766567 -0.183411048082 0.0546523922708 -0.0641987657149 0.127388801442 0.071513814501 0.0981240983363 0.0612943521644 0.0302978329364 -0.0205772145666 -0.0414921918023 -0.0468413090373 0.0858473684682 -0.0659885306973 -0.120900172049 -0.121300911199 -0.154414275648 0.353888933388 0.207144873516 -0.0459787003488 -0.172254972784 0.169320214255 0.0310465750796 -0.0644857444443 0.0102712793538 -0.0282411661114 0.0818956462889 0.331278569924 0.117132481013 0.123624594204 -0.218733471277 -0.0753239778794 0.133215857016 0.0186024785179 0.0860192780667 0.365955511973 -0.0340992212198 0.0578153025721 -0.183395360988 -0.00808166851625 0.0261654832334 0.0757050255155 0.0245866724462 -0.0581028353021 -0.152306950121 0.0032304697658 -0.112619511559 0.172750866973 -0.201984353841 -0.0546357223647 0.248305052337 -0.382080332525 0.148347366054 -0.0285441670717 0.30923614011 0.158265201826 0.13435045817 -0.077579282651 -0.189770488341 0.11183269567 -0.213279511627 0.154246598887 -0.0313921138167 -0.209628308298 -0.039907665744 -0.211108839888 -0.102885644448 0.088980959375 -0.141056126196 -0.0240273483924
that 0.0242635748139 -0.098677003339 -0.069990626132 -0.0721631527851 0.233582008188 -0.109952268723 0.182306067807 0.342164371091 -0.0415067912021 -0.384397738814 0.00558684285144 0.0425449874662 0.0492948501189 0.0615750302096 0.230188508276 0.354114629021 0.0473053469122 0.26866437002 -0.257276616242 0.0507874536259 0.202185260651 0.10500683165 0.0343059190574 -0.190255393529 0.0017157428679 -0.138313644411 -0.0636010103087 0.175079576923 -0.0922665636126 0.102665849706 -0.319105532431 -0.187404910442 0.0592631314603 -0.0698915170947 0.121406579764 0.0745497285794 0.0986099292057 0.0626409744314 0.031192253657 -0.0239107174933 -0.0416108150565 -0.052435846186 0.0902970495831 -0.0738274660153 -0.122799075488 -0.124094318959 -0.15452246222 0.36188953313 0.201865292061 -0.0420835187543 -0.181504285248 0.174900170704 0.0325461630438 -0.0633456500824 0.0152057421375 -0.029318655055 0.0833123077576 0.340571651786 0.123425749261 0.127120411002 -0.231905764512 -0.0747945919996 0.139655252372 0.0171586464785 0.0809961237207 0.372558802503 -0.0462356032759 0.0555820985867 -0.185191849223 -0.00179747621256 0.0181680394284 0.0719711325361 0.0228147878265 -0.0577302774362 -0.162839389293 -0.0012868576816 -0.111853489248 0.173728654288 -0.205753454027 -0.0521155558908 0.250265594529 -0.382068451864 0.151189995668 -0.0277624440218 0.316616828598 0.158779970415 0.138890480703 -0.0823409313139 -0.189864573209 0.10738171015 -0.216262214207 0.161889319236 -0.0341271892291 -0.216388278937 -0.0415600854563 -0.214724620927 -0.106301873415 0.0890082392636 -0.138378446311 -0.0282306908205
are 0.0233357803221 -0.0992420584562 -0.0650513979105 -0.0761467056708 0.237499381285 -0.116694576207 0.179874716186 0.330449094596 -0.0385468156106 -0.373427622598 -0.00162870522422 0.0365150499711 0.0474760240302 0.0613586325464 0.232051032298 0.359860090929 0.0486909857761 0.27453590601 -0.245980448077 0.0550382958777 0.199503796888 0.114684290105 0.024852105047 -0.178554515834 0.00530062815071 -0.139047394567 -0.0686805231393 0.165633432641 -0.0932495229326 0.102411934769 -0.316881501454 -0.183508880024 0.0554869547295 -0.0667340186465 0.120817863217 0.0683711278801 0.0940738487462 0.0512203787934 0.0290615355095 -0.0205051850664 -0.0364150596297 -0.0458419171868 0.082094431304 -0.0648575248195 -0.125738258927 -0.128220634036 -0.148837347147 0.359141388766 0.203408911959 -0.0402219375987 -0.177275659782 0.170788036273 0.02938751107 -0.0658998299605 0.0163922466559 -0.0298944660403 0.0829787464087 0.341904133431 0.12035033491 0.128923837217 -0.222567298562 -0.0780992549535 0.137371366801 0.0157436158475 0.0816431983216 0.358846339251 -0.0425003172871 0.0512946484735 -0.180091566944 0.00165794111179 0.0251656204365 0.0797882511156 0.025843408765 -0.0557353510749 -0.156577336425 -0.000660237352638 -0.107762143884 0.173402047101 -0.208295612751 -0.0468287331425 0.250173641635 -0.378206546213 0.158399981239 -0.0188146115695 0.314807199484 0.158285894206 0.133934869533 -0.0767172472035 -0.189711509518 0.11842185282 -0.215930080743 0.154228111413 -0.0342451258961 -0.219266871704 -0.0336009602282 -0.212454479824 -0.105652960928 0.0839903400218 -0.138812738884 -0.0229697161454
country 0.0319429291918 -0.0929601163011 -0.066350922801 -0.0705469956392 0.230221816438 -0.11165532468 0.173889465284 0.330098903226 -0.0433605218358 -0.373858709463 0.00389344716517 0.0392496211635 0.0491579709865 0.0584656544368 0.227147335343 0.342083200435 0.0509908703241 0.264971006022 -0.243571312777 0.0537130685149 0.196908732578 0.102639311336 0.0270402676275 -0.180785436827 0.00384952257576 -0.134271327613 -0.0654484544907 0.163695891883 -0.0915945515152 0.0978992408911 -0.310324699603 -0.184756081214 0.056823253202 -0.0666842820631 0.120243999552 0.0713896819766 0.0965500734344 0.0587459043232 0.0322793430752 -0.0211097752937 -0.0422419867505 -0.0425109297481 0.0842367630578 -0.0736491533728 -0.112184709576 -0.127732279649 -0.143538161813 0.353071761142 0.202951801925 -0.0465776407768 -0.17899786075 0.161770765168 0.0342517006065 -0.0557857161747 0.0172932275152 -0.0249580759339 0.0776542380633 0.330573430158 0.116632945289 0.128824531356 -0.219614483775 -0.0764657570621 0.137334466712 0.0194221419449 0.075539771181 0.361610031737 -0.036704584855 0.0595504010049 -0.1874474456 -0.0046774219778 0.0196336718535 0.0696867136812 0.0239479455876 -0.0494628078087 -0.155426762814 -0.00869936586842 -0.113523111578 0.179420038462 -0.201024581481 -0.0441451049243 0.244101107483 -0.372984669462 0.151198118702 -0.023505459759 0.313466865419 0.154138354244 0.127366867212 -0.0782338937264 -0.190828992067 0.112370024127 -0.218465104608 0.151057904965 -0.0435771073352 -0.212358581567 -0.0408950931829 -0.214580158283 -0.101681724934 0.0872913095426 -0.127144581145 -0.0252838298175
war 0.0286475175265 -0.100606977654 -0.0692020016057 -0.0751281307882 0.231872607474 -0.10799155777 0.174059051938 0.331543117191 -0.0355376301397 -0.369237757907 0.00153218431599 0.0347868049633 0.0399025643909 0.0570244919074 0.226481151724 0.351440835734 0.0523671426912 0.262955639588 -0.254273134916 0.0463868215962 0.199972069331 0.107022132476 0.0328688196832 -0.180406244243 0.0061892994841 -0.125892752659 -0.0633427703545 0.171412564538 -0.0901215038257 0.102242161719 -0.30057338686 -0.18579571715 0.0554016492022 -0.0711788800176 0.119492135903 0.0701227728824 0.0959855036807 0.0558995685477 0.0281514215005 -0.024508041421 -0.0371234690353 -0.0495464376264 0.0842177794208 -0.071804085143 -0.115019982876 -0.123581239573 -0.149585519417 0.349929158046 0.205313928123 -0.0373762393484 -0.170052210156 0.16436613264 0.0280845858991 -0.0638869947603 0.0152642582635 -0.0314039659966 0.0824659643376 0.335382412482 0.114266608704 0.125077485725 -0.224029746956 -0.0797452977228 0.125443676188 0.016992753905 0.0858338930942 0.36187900974 -0.0435205458296 0.0552820666829 -0.184393081752 -0.010386644664 0.0220289175061 0.0717739493475 0.025883545601 -0.058186530513 -0.157423782007 -0.00204555185365 -0.107441402407 0.165736573785 -0.207814138429 -0.0541265698488 0.242188348961 -0.37541286271 0.14627509639 -0.0229201821335 0.309713914283 0.156047999914 0.136443318056 -0.0749675433073 -0.185840535172 0.103663322864 -0.214605870068 0.159239221675 -0.037397257069 -0.20896903235 -0.045006264033 -0.215566893229 -0.108124505942 0.089460339335 -0.133195457018 -0.0320726037857
been 0.029455613515 -0.093318548613 -0.0729566975787 -0.0718323013543 0.231810152482 -0.112552776367 0.177925387527 0.325696294247 -0.0400138909048 -0.370713129398 -0.00202924400472 0.0391172702343 0.0395032852937 0.056767391874 0.229929345854 0.34866708402 0.0503615501139 0.269740546036 -0.251834915854 0.0465063620319 0.197491287038 0.110559692704 0.0324373230364 -0.1752259367 0.0063803669895 -0.133911734297 -0.0635740603627 0.167086331062 -0.0901626044997 0.0998467104755 -0.302708272797 -0.184302456764 0.0597523011241 -0.0698874761628 0.115703415198 0.0717690563806 0.096280750849 0.054480045946 0.0242686090072 -0.0199169389702 -0.037008825965 -0.0497965199228 0.088266858482 -0.0727688152269 -0.113290319074 -0.125191134201 -0.144865509062 0.346972620097 0.203073187458 -0.0452821700567 -0.169219401771 0.169800065471 0.026419082989 -0.0568660437958 0.0153719373102 -0.0262129012602 0.0742719934146 0.333453399518 0.112805259143 0.132257520622 -0.218123150762 -0.081868452271 0.135491083723 0.0183557887568 0.0789789879434 0.353780406635 -0.0439647775626 0.0557765318881 -0.177667896742 -0.00745212136828 0.0184901336945 0.0708417617968 0.0176186388302 -0.0578181725245 -0.153019529367 -0.00437393382151 -0.111214030406 0.170048876253 -0.197882105917 -0.0463160884515 0.243092745611 -0.375346090548 0.150958287838 -0.0221846509343 0.301247847418 0.149351804994 0.129825482939 -0.0756999455668 -0.183568235408 0.103870336556 -0.213111649205 0.1539114645 -0.0413726890467 -0.211970901808 -0.0408885972093 -0.214094444907 -0.103371800885 0.0904088269128 -0.135126614804 -0.0256685132466
from 0.0295742596114 -0.0982103599926 -0.0729808688596 -0.075697341827 0.232099842098 -0.116812598493 0.18657368504 0.33988407829 -0.0379469592474 -0.376462960381 0.0010423504585 0.0395943297353 0.0485033168078 0.0534886328066 0.238844353655 0.359203190654 0.0525437365718 0.276384205208 -0.249379621593 0.0498304570295 0.198867141685 0.107159222675 0.0315096488806 -0.18090062593 0.00025808173728 -0.133575096614 -0.0634572971348 0.175877558384 -0.0966955101867 0.109446920692 -0.313253866539 -0.193889559554 0.0582447237016 -0.0706240578882 0.126120332295 0.0735054267489 0.0931994716814 0.0534680329278 0.0291476222458 -0.0192622978922 -0.0387661508239 -0.0530242737024 0.0853722034217 -0.0699109470018 -0.124402121685 -0.123160684171 -0.155477259014 0.355580615053 0.197899247526 -0.0401164639045 -0.17384671044 0.172287631156 0.0319233551278 -0.0650827961259 0.0168288956663 -0.0284546747695 0.0821708348512 0.343922027333 0.115490455289 0.125902795915 -0.226877057502 -0.0755117910232 0.135639319338 0.00977781433825 0.0838243595327 0.369718224017 -0.0395703858567 0.0517358244932 -0.185015919634 -0.00699619512697 0.0179372221345 0.0754798378611 0.0258250032294 -0.0512655560559 -0.155652115472 -0.0032283292508 -0.111089608454 0.171657956404 -0.207725401901 -0.0482243809282 0.254122506199 -0.375675176011 0.154114113119 -0.0234706679291 0.316035235745 0.153793324202 0.131307513945 -0.0817743672079 -0.187551182411 0.116565052772 -0.21388478504 0.152248585092 -0.0334046149295 -0.21830367674 -0.0405220005864 -0.216193036782 -0.102765166151 0.0836581200641 -0.142353550503 -0.0222502081727
japanese 0.0307593935304 -0.10139469629 -0.0708109178538 -0.0721228697107 0.234048828818 -0.117237100257 0.182246085423 0.341023961894 -0.0394767774293 -0.38082208928 0.00150490290823 0.0371075147263 0.0435474365154 0.0531045814428 0.229522947649 0.350696140794 0.0481108414145 0.268437979042 -0.249088322286 0.0432992797857 0.207066450818 0.105054272701 0.0244767237855 -0.181449116747 -0.000699595343689 -0.135927418331 -0.0661382769955 0.174640594355 -0.0955626573819 0.109021768614 -0.31453644104 -0.193093021944 0.0602869125223 -0.0629352947295 0.119861060753 0.0687208655155 0.0967757807723 0.0617393882998 0.0217911539621 -0.0215760683357 -0.0412232044369 -0.0486020216987 0.0857421533408 -0.0758117129608 -0.116214944216 -0.129160528425 -0.152390823179 0.351702504044 0.204523999868 -0.0470619003727 -0.173261724736 0.174361172687 0.0344806070359 -0.0601952931217 0.015090163234 -0.0332732908823 0.0841072996402 0.334217534091 0.121880376607 0.132616347485 -0.226748179401 -0.0804676597477 0.130495563408 0.00983407075635 0.0872385649653 0.366145905692 -0.0372978700538 0.0540840188996 -0.186233606992 -0.00439423285034 0.0267073618886 0.071672883279 0.0197305199676 -0.0514691796809 -0.163646375874 0.000227066569609 -0.107609429787 0.171216444781 -0.20831353209 -0.0515083328822 0.245102057486 -0.377410531879 0.145827713634 -0.02251202836 0.313173549787 0.155657627843 0.136581408658 -0.0842549842891 -0.186386521749 0.111997066361 -0.220877327482 0.15231080448 -0.0412576458549 -0.207697327999 -0.0397051910067 -0.219987279236 -0.104044852844 0.0908486214127 -0.141166895044 -0.0295927494521
on 0.027992150861 -0.102144122083 -0.0660236073256 -0.0747276755475 0.227819868642 -0.109167582165 0.17712436393 0.334196573646 -0.0387448451094 -0.376201380687 -0.000122850186449 0.0375725200862 0.0432741658112 0.0596269910132 0.232137570754 0.356299676104 0.0526113574269 0.264727652517 -0.249784194734 0.0471567096393 0.205142603736 0.11254492902 0.0266964929949 -0.182613277543 -0.00124557021749 -0.135271253643 -0.0604552444248 0.171387086263 -0.0925248029185 0.10057175068 -0.308173737647 -0.185245854415 0.0555153891829 -0.0670713723334 0.12240877604 0.0727892081294 0.0957246118446 0.0572264610372 0.0277704795002 -0.0240991153139 -0.0385124508515 -0.0510368234704 0.0826391149949 -0.0685943362917 -0.123026376876 -0.12033159565 -0.151266058552 0.350910802664 0.203726932298 -0.0420669202064 -0.171875019714 0.168042031717 0.0336776816006 -0.0689920960693 0.0158202615532 -0.0336876426895 0.0817576486882 0.338677742877 0.119586468067 0.129700485106 -0.229186124472 -0.0751296058198 0.135353397601 0.0132157120621 0.0851565712197 0.360406818674 -0.0457499207674 0.0593539104391 -0.183821191493 -0.00622000524373 0.0179250400319 0.0748263115677 0.0208029330282 -0.0542914072846 -0.162659035587 -0.00410686261287 -0.105216870411 0.167374116612 -0.206415991068 -0.0448051401361 0.255093561338 -0.374857958956 0.15033218574 -0.0293357853718 0.311874901356 0.154033691293 0.132693901749 -0.0848769167569 -0.185573536759 0.111414085993 -0.212780301026 0.156515673476 -0.033787253788 -0.220007510291 -0.0411345606936 -0.216955208664 -0.100535994716 0.0912007905093 -0.132737069154 -0.0273305614362
was 0.0192637316869 -0.0976262283349 -0.0662484060447 -0.0653393794447 0.228221913195 -0.104942712304 0.16774526496 0.318523332253 -0.0404728136167 -0.354509010179 -0.00019727919508 0.0333282169989 0.0439273706952 0.0572032540655 0.224432661036 0.33768226501 0.0491877187376 0.253873852388 -0.241866599767 0.0523860245104 0.191544940729 0.105266696957 0.0327340546364 -0.169765747017 0.000896790783638 -0.129548252556 -0.0616154825087 0.161143409682 -0.0874460798283 0.0991531363193 -0.294200337351 -0.182123017546 0.0538288220674 -0.0604611503227 0.115608717905 0.0647140489274 0.0922489623664 0.0593599539093 0.0256946905228 -0.024554895673 -0.03728436031 -0.0426830348985 0.0850344061935 -0.0697871574224 -0.106476772288 -0.123821165344 -0.143911591368 0.340806224722 0.195938953526 -0.0357414545929 -0.162957777587 0.160729262335 0.0314770009477 -0.0630834441397 0.014944804328 -0.0329199851298 0.0723367836953 0.314856408249 0.112751786939 0.119674232787 -0.214063042625 -0.0716756007247 0.123759746426 0.00997807234564 0.0775437729854 0.344242629687 -0.0363164721432 0.0545733939224 -0.180204033907 -0.00661235673786 0.0225363821628 0.0702514144229 0.0204648969165 -0.0557100437561 -0.153573971267 -0.00110676428262 -0.104995462027 0.168335843331 -0.192199410075 -0.0430174130184 0.238444249866 -0.356316206661 0.143726060228 -0.0250894473648 0.299053860557 0.143399762965 0.127405074152 -0.0753602417835 -0.176261832749 0.101188703562 -0.207585405947 0.152489212639 -0.0356998233039 -0.201306815165 -0.0381215488913 -0.206148468924 -0.0989329179211 0.0812221902291 -0.125647818687 -0.0274283973576
world 0.024727479438 -0.0988659132364 -0.0673020015191 -0.0800485951451 0.226241263676 -0.113154127199 0.172593409213 0.32991300931 -0.0333729958565 -0.37298310001 0.00182324173802 0.0410177359555 0.0492249943389 0.0582646198781 0.228519005906 0.343642142996 0.0440926404322 0.265629471227 -0.251471794172 0.0489505193429 0.195993582028 0.102517037544 0.0308436783627 -0.185848217496 0.00281741257603 -0.135689055497 -0.0671489694175 0.171413165872 -0.0899798312026 0.0979953350235 -0.306370571849 -0.189491998747 0.0534501937121 -0.0693186781092 0.11825330667 0.0700202032343 0.094183262822 0.0541975020878 0.0291238532745 -0.0235346139496 -0.0394817477587 -0.0510115027494 0.0911094420219 -0.0715994849304 -0.113207880891 -0.124739120751 -0.149634158627 0.354255635874 0.199231988122 -0.0468181141133 -0.173471940568 0.167970977653 0.0329572691696 -0.0633800985787 0.0101446386621 -0.0279040413572 0.0817100799393 0.332968729143 0.115402823036 0.127967984259 -0.221456704161 -0.0786506090949 0.140003386969 0.0103848914062 0.086563883779 0.357337638572 -0.0450917693322 0.0585275863362 -0.18709530057 -0.00865563378757 0.0211973107135 0.0724248962949 0.0239986951309 -0.0542426384678 -0.153897923 -0.0087513725851 -0.104268683373 0.176874390682 -0.196578695085 -0.0450306245023 0.250949810409 -0.376886068736 0.154073361068 -0.0251988756066 0.312781188799 0.153662286637 0.136495453019 -0.0842414513544 -0.183651823334 0.106813082301 -0.212642292734 0.155015680755 -0.039682297615 -0.215553502293 -0.0433592025542 -0.216924616467 -0.10070684773 0.0876264749727 -0.12862307291 -0.026470279235
education 0.0312346139716 -0.104313234975 -0.0654872233779 -0.0841147057312 0.232828831527 -0.107216304324 0.176324071511 0.340362060028 -0.0433937185584 -0.377753603389 0.00522605935954 0.0348765931923 0.0448487662883 0.060189978352 0.233375290009 0.358723490396 0.0504585916557 0.267373294211 -0.253580802471 0.057634152353 0.204111733505 0.110390309674 0.0329827797888 -0.181685100893 0.00221817121723 -0.140857706018 -0.0643223159279 0.175175450321 -0.0991865812685 0.104567761226 -0.31797386307 -0.189485792776 0.0586513905113 -0.0753399349436 0.12049976987 0.0727134471372 0.0920178498758 0.053304009277 0.0223471466863 -0.022165060236 -0.046154419667 -0.0460484117512 0.0891057770462 -0.0690657321113 -0.124149655769 -0.128896509778 -0.14719181256 0.357186199297 0.203106292214 -0.0455825736969 -0.173900325555 0.159929849673 0.03595803802 -0.06107005023 0.0164827460343 -0.0347743268201 0.0764429605089 0.346454425431 0.122989465101 0.13167203174 -0.227487496315 -0.0749130744212 0.139635014407 0.0197891514216 0.0853859093138 0.369983414187 -0.0341651424885 0.0527094592059 -0.183349588891 -0.0064742128654 0.0241902735113 0.0758862608378 0.0182573493652 -0.0574854785812 -0.162359004068 -0.00807375779612 -0.105247820473 0.178217330924 -0.205411979873 -0.0497521443079 0.260842762147 -0.379070985169 0.163478447457 -0.0211746010073 0.317079830906 0.162164451512 0.137658732806 -0.0780757711363 -0.189668651145 0.114166109069 -0.223755439566 0.157105420471 -0.0373163749278 -0.215915369043 -0.0357218400369 -0.218551703337 -0.102786349338 0.0870052793824 -0.132166415007 -0.0211001976109
its 0.028707743956 -0.105715689409 -0.0667408958681 -0.0764666139902 0.231459478635 -0.114187613181 0.181198261163 0.342994260014 -0.0451294758317 -0.384556642453 0.00505288094163 0.0308347491928 0.0527656707895 0.0565280703151 0.237811433162 0.362083753434 0.0533252142073 0.273710940517 -0.249792917357 0.04982465656 0.199778470179 0.111871313161 0.0279815422801 -0.191610433698 0.000935628598064 -0.136951038203 -0.0672517905976 0.173760327953 -0.0991839953203 0.102511981226 -0.317334652092 -0.193335455186 0.0545949363004 -0.0689352059573 0.123922026664 0.0680980774511 0.0984380377906 0.0520011984652 0.0240368326404 -0.0239201217138 -0.0467442982596 -0.0474566630041 0.0876462503466 -0.0646784457067 -0.120471887968 -0.124726092625 -0.15555542133 0.358828760691 0.201458021032 -0.0415527999653 -0.182499065047 0.166676817673 0.0327603163819 -0.0601686286737 0.0122403713236 -0.0321792699608 0.087375993584 0.339296404269 0.117789117428 0.126718248596 -0.226209272525 -0.0742039103848 0.133716414313 0.0144927091149 0.0821837630687 0.37239198657 -0.0417102689467 0.052247782447 -0.186639896979 -0.00586626945069 0.0233498426266 0.0769555574175 0.0211897041265 -0.0588629418874 -0.16537754279 -0.00616076401034 -0.106988615515 0.176111997388 -0.204790275583 -0.0484418084006 0.261570230923 -0.385112935003 0.160405175705 -0.0228455280048 0.312292888215 0.159492967554 0.134895981137 -0.0803259343203 -0.191557520341 0.107481460883 -0.220037427415 0.158216778303 -0.0402739705685 -0.218952201628 -0.0368298068702 -0.214197303648 -0.113152281821 0.0872696659125 -0.138124126963 -0.0241598504609
by 0.022595037108 -0.0963257479072 -0.0711633548063 -0.0811934381388 0.23472217164 -0.113119695524 0.188632215208 0.340853316241 -0.0413524080752 -0.379570103191 0.00331169452338 0.0361011861202 0.050494979607 0.0592235885731 0.231149855007 0.36254446807 0.0463811165544 0.275282737837 -0.25557768631 0.052774220958 0.207858749707 0.114031959425 0.0261350593205 -0.192560560034 -0.00185607356896 -0.136665873223 -0.0613074773576 0.170236544094 -0.0955121585779 0.108579472479 -0.317974232128 -0.190998574294 0.0554709663459 -0.074240379558 0.121104935985 0.073441534148 0.0916856846181 0.0525460765048 0.0258009452886 -0.0200298409499 -0.0441859411634 -0.0527621996516 0.0891649715857 -0.0739232290601 -0.120109389541 -0.124869155287 -0.152365864495 0.358087935011 0.204219046911 -0.0427998707472 -0.178541407476 0.170810728715 0.0323540810576 -0.0661157234791 0.0177949066667 -0.027085025142 0.0856841307378 0.347686045457 0.122648017785 0.133762794749 -0.223747260736 -0.0774977387781 0.136463131606 0.0131890095715 0.0882627212467 0.371052143798 -0.0388025011432 0.0609985133917 -0.183937426151 -0.00604335447962 0.0228807263134 0.0722549601865 0.0221503642128 -0.053431794596 -0.15733021642 -0.00136086020964 -0.109043841941 0.173636787016 -0.208496130996 -0.0484996572302 0.258563139156 -0.385917468929 0.150170711266 -0.0232835964975 0.31220685439 0.156011317788 0.132193450936 -0.082639197324 -0.187931558931 0.115533592914 -0.22555569721 0.158667116501 -0.0377604568361 -0.224998888383 -0.0406273169385 -0.218849071757 -0.11171155061 0.0853054714749 -0.133819892112 -0.0328176989438
north 0.0207559466235 -0.0935300354505 -0.0766826005743 -0.0762666724008 0.235023540809 -0.113884665516 0.182291120376 0.335729887417 -0.0371597105543 -0.373186148066 0.000580416131288 0.0409748032702 0.0442799983169 0.0591289226177 0.230906915853 0.356589761133 0.0448116689211 0.276295529985 -0.257616210169 0.0399630627459 0.209878986018 0.103358703835 0.0302682573659 -0.190241846429 -0.000626271212794 -0.130976912037 -0.0600393298015 0.166735456832 -0.0874567378462 0.0975084426505 -0.306654164572 -0.184771998378 0.0592338847081 -0.0708060952907 0.120649953518 0.0674045939646 0.0922856649556 0.0553854904352 0.0210906955941 -0.0161503939526 -0.0423733292933 -0.0470944253964 0.0929858041332 -0.0686499218289 -0.119998325114 -0.126193696681 -0.161308812648 0.362102639026 0.207552268315 -0.0417499034152 -0.173231727003 0.16929787748 0.0356197656696 -0.0659646323977 0.0183235894725 -0.0284854762184 0.0797770564724 0.344518075631 0.126053721398 0.125862704988 -0.224804860942 -0.0772721243044 0.130761037214 0.0206949715211 0.0803578530485 0.363999897054 -0.042773325725 0.0628015138066 -0.190314059319 -0.0112761088725 0.02404144111 0.0706809316034 0.0271088246913 -0.0573241642907 -0.160435349532 -0.00441541299927 -0.111673000058 0.170069420041 -0.208282397481 -0.0510049995799 0.256855308384 -0.383611933247 0.145370281644 -0.0292733851435 0.315610429465 0.158727915861 0.13936010878 -0.0832871789854 -0.18381795176 0.111079448636 -0.221803879894 0.159533666496 -0.0361931904292 -0.217868904423 -0.0358514068545 -0.209561171262 -0.104351256505 0.0858381002741 -0.145623379674 -0.0343470644336
